digraph Tree {
node [shape=box, style="filled, rounded", color="black", fontname="helvetica"] ;
edge [fontname="helvetica"] ;
0 [label="X[0] <= 8.0\nsquared_error = 1.046\nsamples = 672\nvalue = -0.024", fillcolor="#eeab7b"] ;
1 [label="X[0] <= 1.5\nsquared_error = 2.497\nsamples = 5\nvalue = -2.769", fillcolor="#f8decb"] ;
0 -> 1 [labeldistance=2.5, labelangle=45, headlabel="True"] ;
2 [label="squared_error = 0.0\nsamples = 1\nvalue = -0.113", fillcolor="#eead7e"] ;
1 -> 2 ;
3 [label="X[0] <= 6.0\nsquared_error = 0.916\nsamples = 4\nvalue = -3.434", fillcolor="#fbeade"] ;
1 -> 3 ;
4 [label="X[0] <= 3.0\nsquared_error = 0.524\nsamples = 3\nvalue = -3.851", fillcolor="#fcf2ea"] ;
3 -> 4 ;
5 [label="squared_error = 0.0\nsamples = 1\nvalue = -2.827", fillcolor="#f8dfcc"] ;
4 -> 5 ;
6 [label="X[0] <= 4.5\nsquared_error = 0.0\nsamples = 2\nvalue = -4.363", fillcolor="#fefbf9"] ;
4 -> 6 ;
7 [label="squared_error = 0.0\nsamples = 1\nvalue = -4.35", fillcolor="#fefbf8"] ;
6 -> 7 ;
8 [label="squared_error = -0.0\nsamples = 1\nvalue = -4.376", fillcolor="#fefbf9"] ;
6 -> 8 ;
9 [label="squared_error = -0.0\nsamples = 1\nvalue = -2.181", fillcolor="#f6d3ba"] ;
3 -> 9 ;
10 [label="X[0] <= 767.5\nsquared_error = 0.979\nsamples = 667\nvalue = -0.004", fillcolor="#eeab7b"] ;
0 -> 10 [labeldistance=2.5, labelangle=-45, headlabel="False"] ;
11 [label="X[0] <= 700.5\nsquared_error = 1.007\nsamples = 610\nvalue = -0.054", fillcolor="#eeac7c"] ;
10 -> 11 ;
12 [label="X[0] <= 621.5\nsquared_error = 0.961\nsamples = 554\nvalue = 0.011", fillcolor="#eeaa7a"] ;
11 -> 12 ;
13 [label="X[0] <= 561.5\nsquared_error = 1.01\nsamples = 493\nvalue = -0.053", fillcolor="#eeac7c"] ;
12 -> 13 ;
14 [label="X[0] <= 480.0\nsquared_error = 0.943\nsamples = 441\nvalue = 0.036", fillcolor="#edaa79"] ;
13 -> 14 ;
15 [label="X[0] <= 419.5\nsquared_error = 0.996\nsamples = 375\nvalue = -0.047", fillcolor="#eeac7c"] ;
14 -> 15 ;
16 [label="X[0] <= 332.5\nsquared_error = 0.902\nsamples = 332\nvalue = 0.036", fillcolor="#edaa79"] ;
15 -> 16 ;
17 [label="X[0] <= 279.5\nsquared_error = 0.953\nsamples = 260\nvalue = -0.084", fillcolor="#eeac7d"] ;
16 -> 17 ;
18 [label="X[0] <= 44.5\nsquared_error = 0.788\nsamples = 220\nvalue = 0.047", fillcolor="#edaa79"] ;
17 -> 18 ;
19 [label="X[0] <= 9.5\nsquared_error = 0.036\nsamples = 29\nvalue = -0.494", fillcolor="#efb489"] ;
18 -> 19 ;
20 [label="squared_error = 0.0\nsamples = 1\nvalue = -1.251", fillcolor="#f2c29f"] ;
19 -> 20 ;
21 [label="X[0] <= 27.5\nsquared_error = 0.016\nsamples = 28\nvalue = -0.467", fillcolor="#efb388"] ;
19 -> 21 ;
22 [label="X[0] <= 12.5\nsquared_error = 0.004\nsamples = 16\nvalue = -0.412", fillcolor="#efb286"] ;
21 -> 22 ;
23 [label="X[0] <= 11.0\nsquared_error = 0.0\nsamples = 2\nvalue = -0.485", fillcolor="#efb488"] ;
22 -> 23 ;
24 [label="squared_error = 0.0\nsamples = 1\nvalue = -0.477", fillcolor="#efb388"] ;
23 -> 24 ;
25 [label="squared_error = 0.0\nsamples = 1\nvalue = -0.492", fillcolor="#efb489"] ;
23 -> 25 ;
26 [label="X[0] <= 19.5\nsquared_error = 0.003\nsamples = 14\nvalue = -0.402", fillcolor="#efb286"] ;
22 -> 26 ;
27 [label="X[0] <= 15.5\nsquared_error = 0.004\nsamples = 7\nvalue = -0.373", fillcolor="#efb285"] ;
26 -> 27 ;
28 [label="X[0] <= 14.5\nsquared_error = 0.006\nsamples = 3\nvalue = -0.409", fillcolor="#efb286"] ;
27 -> 28 ;
29 [label="X[0] <= 13.5\nsquared_error = 0.003\nsamples = 2\nvalue = -0.366", fillcolor="#efb185"] ;
28 -> 29 ;
30 [label="squared_error = 0.0\nsamples = 1\nvalue = -0.422", fillcolor="#efb287"] ;
29 -> 30 ;
31 [label="squared_error = 0.0\nsamples = 1\nvalue = -0.309", fillcolor="#efb083"] ;
29 -> 31 ;
32 [label="squared_error = 0.0\nsamples = 1\nvalue = -0.496", fillcolor="#efb489"] ;
28 -> 32 ;
33 [label="X[0] <= 18.5\nsquared_error = 0.0\nsamples = 4\nvalue = -0.345", fillcolor="#efb184"] ;
27 -> 33 ;
34 [label="X[0] <= 16.5\nsquared_error = 0.0\nsamples = 3\nvalue = -0.355", fillcolor="#efb185"] ;
33 -> 34 ;
35 [label="squared_error = 0.0\nsamples = 1\nvalue = -0.342", fillcolor="#efb184"] ;
34 -> 35 ;
36 [label="X[0] <= 17.5\nsquared_error = 0.0\nsamples = 2\nvalue = -0.362", fillcolor="#efb185"] ;
34 -> 36 ;
37 [label="squared_error = 0.0\nsamples = 1\nvalue = -0.355", fillcolor="#efb185"] ;
36 -> 37 ;
38 [label="squared_error = -0.0\nsamples = 1\nvalue = -0.368", fillcolor="#efb185"] ;
36 -> 38 ;
39 [label="squared_error = 0.0\nsamples = 1\nvalue = -0.317", fillcolor="#efb084"] ;
33 -> 39 ;
40 [label="X[0] <= 24.0\nsquared_error = 0.001\nsamples = 7\nvalue = -0.432", fillcolor="#efb387"] ;
26 -> 40 ;
41 [label="X[0] <= 22.5\nsquared_error = 0.001\nsamples = 4\nvalue = -0.416", fillcolor="#efb286"] ;
40 -> 41 ;
42 [label="X[0] <= 20.5\nsquared_error = 0.001\nsamples = 3\nvalue = -0.433", fillcolor="#efb387"] ;
41 -> 42 ;
43 [label="squared_error = 0.0\nsamples = 1\nvalue = -0.412", fillcolor="#efb286"] ;
42 -> 43 ;
44 [label="X[0] <= 21.5\nsquared_error = 0.001\nsamples = 2\nvalue = -0.443", fillcolor="#efb387"] ;
42 -> 44 ;
45 [label="squared_error = 0.0\nsamples = 1\nvalue = -0.472", fillcolor="#efb388"] ;
44 -> 45 ;
46 [label="squared_error = 0.0\nsamples = 1\nvalue = -0.413", fillcolor="#efb286"] ;
44 -> 46 ;
47 [label="squared_error = 0.0\nsamples = 1\nvalue = -0.365", fillcolor="#efb185"] ;
41 -> 47 ;
48 [label="X[0] <= 25.5\nsquared_error = 0.0\nsamples = 3\nvalue = -0.453", fillcolor="#efb388"] ;
40 -> 48 ;
49 [label="squared_error = 0.0\nsamples = 1\nvalue = -0.471", fillcolor="#efb388"] ;
48 -> 49 ;
50 [label="X[0] <= 26.5\nsquared_error = 0.0\nsamples = 2\nvalue = -0.444", fillcolor="#efb387"] ;
48 -> 50 ;
51 [label="squared_error = 0.0\nsamples = 1\nvalue = -0.425", fillcolor="#efb287"] ;
50 -> 51 ;
52 [label="squared_error = 0.0\nsamples = 1\nvalue = -0.463", fillcolor="#efb388"] ;
50 -> 52 ;
53 [label="X[0] <= 42.5\nsquared_error = 0.023\nsamples = 12\nvalue = -0.539", fillcolor="#f0b58a"] ;
21 -> 53 ;
54 [label="X[0] <= 38.5\nsquared_error = 0.009\nsamples = 10\nvalue = -0.594", fillcolor="#f0b68c"] ;
53 -> 54 ;
55 [label="X[0] <= 31.0\nsquared_error = 0.008\nsamples = 7\nvalue = -0.632", fillcolor="#f0b68d"] ;
54 -> 55 ;
56 [label="X[0] <= 28.5\nsquared_error = 0.001\nsamples = 2\nvalue = -0.514", fillcolor="#f0b489"] ;
55 -> 56 ;
57 [label="squared_error = 0.0\nsamples = 1\nvalue = -0.552", fillcolor="#f0b58a"] ;
56 -> 57 ;
58 [label="squared_error = 0.0\nsamples = 1\nvalue = -0.475", fillcolor="#efb388"] ;
56 -> 58 ;
59 [label="X[0] <= 35.5\nsquared_error = 0.002\nsamples = 5\nvalue = -0.679", fillcolor="#f0b78e"] ;
55 -> 59 ;
60 [label="X[0] <= 34.0\nsquared_error = 0.003\nsamples = 2\nvalue = -0.715", fillcolor="#f0b88f"] ;
59 -> 60 ;
61 [label="squared_error = 0.0\nsamples = 1\nvalue = -0.661", fillcolor="#f0b78e"] ;
60 -> 61 ;
62 [label="squared_error = 0.0\nsamples = 1\nvalue = -0.77", fillcolor="#f1b991"] ;
60 -> 62 ;
63 [label="X[0] <= 36.5\nsquared_error = 0.0\nsamples = 3\nvalue = -0.655", fillcolor="#f0b78d"] ;
59 -> 63 ;
64 [label="squared_error = 0.0\nsamples = 1\nvalue = -0.672", fillcolor="#f0b78e"] ;
63 -> 64 ;
65 [label="X[0] <= 37.5\nsquared_error = 0.0\nsamples = 2\nvalue = -0.647", fillcolor="#f0b78d"] ;
63 -> 65 ;
66 [label="squared_error = 0.0\nsamples = 1\nvalue = -0.654", fillcolor="#f0b78d"] ;
65 -> 66 ;
67 [label="squared_error = 0.0\nsamples = 1\nvalue = -0.639", fillcolor="#f0b68d"] ;
65 -> 67 ;
68 [label="X[0] <= 40.0\nsquared_error = 0.002\nsamples = 3\nvalue = -0.505", fillcolor="#f0b489"] ;
54 -> 68 ;
69 [label="squared_error = 0.0\nsamples = 1\nvalue = -0.559", fillcolor="#f0b58b"] ;
68 -> 69 ;
70 [label="X[0] <= 41.5\nsquared_error = 0.0\nsamples = 2\nvalue = -0.478", fillcolor="#efb388"] ;
68 -> 70 ;
71 [label="squared_error = 0.0\nsamples = 1\nvalue = -0.493", fillcolor="#efb489"] ;
70 -> 71 ;
72 [label="squared_error = 0.0\nsamples = 1\nvalue = -0.463", fillcolor="#efb388"] ;
70 -> 72 ;
73 [label="X[0] <= 43.5\nsquared_error = 0.001\nsamples = 2\nvalue = -0.267", fillcolor="#efb082"] ;
53 -> 73 ;
74 [label="squared_error = 0.0\nsamples = 1\nvalue = -0.302", fillcolor="#efb083"] ;
73 -> 74 ;
75 [label="squared_error = 0.0\nsamples = 1\nvalue = -0.233", fillcolor="#eeaf81"] ;
73 -> 75 ;
76 [label="X[0] <= 113.5\nsquared_error = 0.851\nsamples = 191\nvalue = 0.129", fillcolor="#eda877"] ;
18 -> 76 ;
77 [label="X[0] <= 100.5\nsquared_error = 0.328\nsamples = 51\nvalue = 0.585", fillcolor="#eba06a"] ;
76 -> 77 ;
78 [label="X[0] <= 60.5\nsquared_error = 0.055\nsamples = 41\nvalue = 0.347", fillcolor="#eca470"] ;
77 -> 78 ;
79 [label="X[0] <= 50.0\nsquared_error = 0.02\nsamples = 14\nvalue = 0.098", fillcolor="#eda978"] ;
78 -> 79 ;
80 [label="X[0] <= 46.5\nsquared_error = 0.005\nsamples = 5\nvalue = -0.067", fillcolor="#eeac7c"] ;
79 -> 80 ;
81 [label="X[0] <= 45.5\nsquared_error = 0.0\nsamples = 2\nvalue = -0.139", fillcolor="#eead7e"] ;
80 -> 81 ;
82 [label="squared_error = 0.0\nsamples = 1\nvalue = -0.125", fillcolor="#eead7e"] ;
81 -> 82 ;
83 [label="squared_error = 0.0\nsamples = 1\nvalue = -0.154", fillcolor="#eead7f"] ;
81 -> 83 ;
84 [label="X[0] <= 48.5\nsquared_error = 0.002\nsamples = 3\nvalue = -0.018", fillcolor="#eeab7b"] ;
80 -> 84 ;
85 [label="X[0] <= 47.5\nsquared_error = 0.0\nsamples = 2\nvalue = -0.045", fillcolor="#eeab7c"] ;
84 -> 85 ;
86 [label="squared_error = 0.0\nsamples = 1\nvalue = -0.024", fillcolor="#eeab7b"] ;
85 -> 86 ;
87 [label="squared_error = -0.0\nsamples = 1\nvalue = -0.066", fillcolor="#eeac7c"] ;
85 -> 87 ;
88 [label="squared_error = 0.0\nsamples = 1\nvalue = 0.035", fillcolor="#edaa79"] ;
84 -> 88 ;
89 [label="X[0] <= 53.5\nsquared_error = 0.005\nsamples = 9\nvalue = 0.189", fillcolor="#eda775"] ;
79 -> 89 ;
90 [label="X[0] <= 51.5\nsquared_error = 0.0\nsamples = 3\nvalue = 0.099", fillcolor="#eda978"] ;
89 -> 90 ;
91 [label="squared_error = 0.0\nsamples = 1\nvalue = 0.071", fillcolor="#eda978"] ;
90 -> 91 ;
92 [label="X[0] <= 52.5\nsquared_error = 0.0\nsamples = 2\nvalue = 0.114", fillcolor="#eda977"] ;
90 -> 92 ;
93 [label="squared_error = 0.0\nsamples = 1\nvalue = 0.124", fillcolor="#eda877"] ;
92 -> 93 ;
94 [label="squared_error = 0.0\nsamples = 1\nvalue = 0.103", fillcolor="#eda977"] ;
92 -> 94 ;
95 [label="X[0] <= 57.5\nsquared_error = 0.002\nsamples = 6\nvalue = 0.234", fillcolor="#eda674"] ;
89 -> 95 ;
96 [label="X[0] <= 55.0\nsquared_error = 0.001\nsamples = 3\nvalue = 0.262", fillcolor="#eda673"] ;
95 -> 96 ;
97 [label="squared_error = 0.0\nsamples = 1\nvalue = 0.225", fillcolor="#eda674"] ;
96 -> 97 ;
98 [label="X[0] <= 56.5\nsquared_error = 0.001\nsamples = 2\nvalue = 0.28", fillcolor="#eda572"] ;
96 -> 98 ;
99 [label="squared_error = 0.0\nsamples = 1\nvalue = 0.302", fillcolor="#eca572"] ;
98 -> 99 ;
100 [label="squared_error = 0.0\nsamples = 1\nvalue = 0.257", fillcolor="#eda673"] ;
98 -> 100 ;
101 [label="X[0] <= 59.5\nsquared_error = 0.001\nsamples = 3\nvalue = 0.207", fillcolor="#eda774"] ;
95 -> 101 ;
102 [label="X[0] <= 58.5\nsquared_error = 0.0\nsamples = 2\nvalue = 0.188", fillcolor="#eda775"] ;
101 -> 102 ;
103 [label="squared_error = 0.0\nsamples = 1\nvalue = 0.196", fillcolor="#eda775"] ;
102 -> 103 ;
104 [label="squared_error = -0.0\nsamples = 1\nvalue = 0.179", fillcolor="#eda775"] ;
102 -> 104 ;
105 [label="squared_error = 0.0\nsamples = 1\nvalue = 0.245", fillcolor="#eda673"] ;
101 -> 105 ;
106 [label="X[0] <= 99.5\nsquared_error = 0.024\nsamples = 27\nvalue = 0.476", fillcolor="#eca26d"] ;
78 -> 106 ;
107 [label="X[0] <= 85.0\nsquared_error = 0.019\nsamples = 26\nvalue = 0.461", fillcolor="#eca26d"] ;
106 -> 107 ;
108 [label="X[0] <= 67.0\nsquared_error = 0.014\nsamples = 15\nvalue = 0.532", fillcolor="#eca16b"] ;
107 -> 108 ;
109 [label="X[0] <= 62.5\nsquared_error = 0.002\nsamples = 4\nvalue = 0.375", fillcolor="#eca470"] ;
108 -> 109 ;
110 [label="X[0] <= 61.5\nsquared_error = 0.0\nsamples = 2\nvalue = 0.335", fillcolor="#eca471"] ;
109 -> 110 ;
111 [label="squared_error = 0.0\nsamples = 1\nvalue = 0.341", fillcolor="#eca471"] ;
110 -> 111 ;
112 [label="squared_error = 0.0\nsamples = 1\nvalue = 0.328", fillcolor="#eca571"] ;
110 -> 112 ;
113 [label="X[0] <= 64.0\nsquared_error = 0.0\nsamples = 2\nvalue = 0.415", fillcolor="#eca36e"] ;
109 -> 113 ;
114 [label="squared_error = 0.0\nsamples = 1\nvalue = 0.406", fillcolor="#eca36f"] ;
113 -> 114 ;
115 [label="squared_error = 0.0\nsamples = 1\nvalue = 0.424", fillcolor="#eca36e"] ;
113 -> 115 ;
116 [label="X[0] <= 82.0\nsquared_error = 0.006\nsamples = 11\nvalue = 0.589", fillcolor="#eba069"] ;
108 -> 116 ;
117 [label="X[0] <= 73.0\nsquared_error = 0.002\nsamples = 9\nvalue = 0.618", fillcolor="#eb9f69"] ;
116 -> 117 ;
118 [label="X[0] <= 71.5\nsquared_error = 0.0\nsamples = 4\nvalue = 0.586", fillcolor="#eba069"] ;
117 -> 118 ;
119 [label="X[0] <= 70.5\nsquared_error = 0.0\nsamples = 3\nvalue = 0.579", fillcolor="#eba06a"] ;
118 -> 119 ;
120 [label="X[0] <= 69.5\nsquared_error = 0.0\nsamples = 2\nvalue = 0.586", fillcolor="#eba069"] ;
119 -> 120 ;
121 [label="squared_error = 0.0\nsamples = 1\nvalue = 0.575", fillcolor="#eba06a"] ;
120 -> 121 ;
122 [label="squared_error = 0.0\nsamples = 1\nvalue = 0.598", fillcolor="#eba069"] ;
120 -> 122 ;
123 [label="squared_error = 0.0\nsamples = 1\nvalue = 0.565", fillcolor="#eba06a"] ;
119 -> 123 ;
124 [label="squared_error = -0.0\nsamples = 1\nvalue = 0.608", fillcolor="#eb9f69"] ;
118 -> 124 ;
125 [label="X[0] <= 78.0\nsquared_error = 0.002\nsamples = 5\nvalue = 0.644", fillcolor="#eb9f68"] ;
117 -> 125 ;
126 [label="X[0] <= 74.5\nsquared_error = 0.0\nsamples = 3\nvalue = 0.678", fillcolor="#eb9e67"] ;
125 -> 126 ;
127 [label="squared_error = 0.0\nsamples = 1\nvalue = 0.656", fillcolor="#eb9f67"] ;
126 -> 127 ;
128 [label="X[0] <= 75.5\nsquared_error = 0.0\nsamples = 2\nvalue = 0.69", fillcolor="#eb9e67"] ;
126 -> 128 ;
129 [label="squared_error = 0.0\nsamples = 1\nvalue = 0.685", fillcolor="#eb9e67"] ;
128 -> 129 ;
130 [label="squared_error = -0.0\nsamples = 1\nvalue = 0.694", fillcolor="#eb9e66"] ;
128 -> 130 ;
131 [label="X[0] <= 80.5\nsquared_error = 0.001\nsamples = 2\nvalue = 0.592", fillcolor="#eba069"] ;
125 -> 131 ;
132 [label="squared_error = 0.0\nsamples = 1\nvalue = 0.615", fillcolor="#eb9f69"] ;
131 -> 132 ;
133 [label="squared_error = -0.0\nsamples = 1\nvalue = 0.569", fillcolor="#eba06a"] ;
131 -> 133 ;
134 [label="X[0] <= 83.5\nsquared_error = 0.0\nsamples = 2\nvalue = 0.456", fillcolor="#eca26d"] ;
116 -> 134 ;
135 [label="squared_error = 0.0\nsamples = 1\nvalue = 0.443", fillcolor="#eca26e"] ;
134 -> 135 ;
136 [label="squared_error = 0.0\nsamples = 1\nvalue = 0.468", fillcolor="#eca26d"] ;
134 -> 136 ;
137 [label="X[0] <= 97.5\nsquared_error = 0.01\nsamples = 11\nvalue = 0.364", fillcolor="#eca470"] ;
107 -> 137 ;
138 [label="X[0] <= 92.5\nsquared_error = 0.005\nsamples = 10\nvalue = 0.342", fillcolor="#eca471"] ;
137 -> 138 ;
139 [label="X[0] <= 90.5\nsquared_error = 0.002\nsamples = 6\nvalue = 0.394", fillcolor="#eca36f"] ;
138 -> 139 ;
140 [label="X[0] <= 89.5\nsquared_error = 0.002\nsamples = 4\nvalue = 0.413", fillcolor="#eca36e"] ;
139 -> 140 ;
141 [label="X[0] <= 88.5\nsquared_error = 0.0\nsamples = 3\nvalue = 0.394", fillcolor="#eca36f"] ;
140 -> 141 ;
142 [label="X[0] <= 87.0\nsquared_error = 0.001\nsamples = 2\nvalue = 0.385", fillcolor="#eca46f"] ;
141 -> 142 ;
143 [label="squared_error = 0.0\nsamples = 1\nvalue = 0.408", fillcolor="#eca36f"] ;
142 -> 143 ;
144 [label="squared_error = 0.0\nsamples = 1\nvalue = 0.363", fillcolor="#eca470"] ;
142 -> 144 ;
145 [label="squared_error = 0.0\nsamples = 1\nvalue = 0.411", fillcolor="#eca36f"] ;
141 -> 145 ;
146 [label="squared_error = -0.0\nsamples = 1\nvalue = 0.472", fillcolor="#eca26d"] ;
140 -> 146 ;
147 [label="X[0] <= 91.5\nsquared_error = 0.0\nsamples = 2\nvalue = 0.355", fillcolor="#eca470"] ;
139 -> 147 ;
148 [label="squared_error = 0.0\nsamples = 1\nvalue = 0.372", fillcolor="#eca470"] ;
147 -> 148 ;
149 [label="squared_error = -0.0\nsamples = 1\nvalue = 0.338", fillcolor="#eca471"] ;
147 -> 149 ;
150 [label="X[0] <= 93.5\nsquared_error = 0.001\nsamples = 4\nvalue = 0.264", fillcolor="#eda673"] ;
138 -> 150 ;
151 [label="squared_error = 0.0\nsamples = 1\nvalue = 0.221", fillcolor="#eda774"] ;
150 -> 151 ;
152 [label="X[0] <= 95.5\nsquared_error = 0.0\nsamples = 3\nvalue = 0.279", fillcolor="#eda672"] ;
150 -> 152 ;
153 [label="X[0] <= 94.5\nsquared_error = 0.0\nsamples = 2\nvalue = 0.286", fillcolor="#eda572"] ;
152 -> 153 ;
154 [label="squared_error = 0.0\nsamples = 1\nvalue = 0.274", fillcolor="#eda673"] ;
153 -> 154 ;
155 [label="squared_error = -0.0\nsamples = 1\nvalue = 0.299", fillcolor="#eca572"] ;
153 -> 155 ;
156 [label="squared_error = 0.0\nsamples = 1\nvalue = 0.264", fillcolor="#eda673"] ;
152 -> 156 ;
157 [label="squared_error = 0.0\nsamples = 1\nvalue = 0.587", fillcolor="#eba069"] ;
137 -> 157 ;
158 [label="squared_error = 0.0\nsamples = 1\nvalue = 0.861", fillcolor="#ea9b62"] ;
106 -> 158 ;
159 [label="X[0] <= 110.5\nsquared_error = 0.255\nsamples = 10\nvalue = 1.564", fillcolor="#e88e4d"] ;
77 -> 159 ;
160 [label="X[0] <= 103.5\nsquared_error = 0.091\nsamples = 8\nvalue = 1.769", fillcolor="#e78a47"] ;
159 -> 160 ;
161 [label="X[0] <= 102.0\nsquared_error = 0.017\nsamples = 2\nvalue = 1.304", fillcolor="#e99355"] ;
160 -> 161 ;
162 [label="squared_error = 0.0\nsamples = 1\nvalue = 1.173", fillcolor="#e99559"] ;
161 -> 162 ;
163 [label="squared_error = 0.0\nsamples = 1\nvalue = 1.434", fillcolor="#e89051"] ;
161 -> 163 ;
164 [label="X[0] <= 104.5\nsquared_error = 0.019\nsamples = 6\nvalue = 1.925", fillcolor="#e68743"] ;
160 -> 164 ;
165 [label="squared_error = 0.0\nsamples = 1\nvalue = 1.701", fillcolor="#e78b49"] ;
164 -> 165 ;
166 [label="X[0] <= 108.5\nsquared_error = 0.011\nsamples = 5\nvalue = 1.969", fillcolor="#e68641"] ;
164 -> 166 ;
167 [label="X[0] <= 106.5\nsquared_error = 0.005\nsamples = 4\nvalue = 2.012", fillcolor="#e68640"] ;
166 -> 167 ;
168 [label="X[0] <= 105.5\nsquared_error = 0.004\nsamples = 2\nvalue = 2.062", fillcolor="#e6853f"] ;
167 -> 168 ;
169 [label="squared_error = 0.0\nsamples = 1\nvalue = 1.999", fillcolor="#e68641"] ;
168 -> 169 ;
170 [label="squared_error = 0.0\nsamples = 1\nvalue = 2.125", fillcolor="#e6843d"] ;
168 -> 170 ;
171 [label="X[0] <= 107.5\nsquared_error = 0.001\nsamples = 2\nvalue = 1.963", fillcolor="#e68742"] ;
167 -> 171 ;
172 [label="squared_error = 0.0\nsamples = 1\nvalue = 1.993", fillcolor="#e68641"] ;
171 -> 172 ;
173 [label="squared_error = -0.0\nsamples = 1\nvalue = 1.932", fillcolor="#e68743"] ;
171 -> 173 ;
174 [label="squared_error = 0.0\nsamples = 1\nvalue = 1.797", fillcolor="#e78a46"] ;
166 -> 174 ;
175 [label="X[0] <= 112.5\nsquared_error = 0.066\nsamples = 2\nvalue = 0.741", fillcolor="#eb9d65"] ;
159 -> 175 ;
176 [label="squared_error = 0.0\nsamples = 1\nvalue = 0.999", fillcolor="#ea985e"] ;
175 -> 176 ;
177 [label="squared_error = -0.0\nsamples = 1\nvalue = 0.484", fillcolor="#eca26c"] ;
175 -> 177 ;
178 [label="X[0] <= 149.5\nsquared_error = 0.938\nsamples = 140\nvalue = -0.037", fillcolor="#eeab7c"] ;
76 -> 178 ;
179 [label="X[0] <= 141.5\nsquared_error = 2.303\nsamples = 32\nvalue = -0.737", fillcolor="#f0b890"] ;
178 -> 179 ;
180 [label="X[0] <= 130.5\nsquared_error = 0.241\nsamples = 24\nvalue = -0.01", fillcolor="#eeab7b"] ;
179 -> 180 ;
181 [label="X[0] <= 114.5\nsquared_error = 0.009\nsamples = 15\nvalue = -0.254", fillcolor="#efaf82"] ;
180 -> 181 ;
182 [label="squared_error = 0.0\nsamples = 1\nvalue = 0.023", fillcolor="#eeaa7a"] ;
181 -> 182 ;
183 [label="X[0] <= 129.5\nsquared_error = 0.004\nsamples = 14\nvalue = -0.274", fillcolor="#efb082"] ;
181 -> 183 ;
184 [label="X[0] <= 121.0\nsquared_error = 0.003\nsamples = 13\nvalue = -0.282", fillcolor="#efb083"] ;
183 -> 184 ;
185 [label="X[0] <= 116.5\nsquared_error = 0.001\nsamples = 5\nvalue = -0.234", fillcolor="#eeaf81"] ;
184 -> 185 ;
186 [label="X[0] <= 115.5\nsquared_error = 0.0\nsamples = 2\nvalue = -0.208", fillcolor="#eeae80"] ;
185 -> 186 ;
187 [label="squared_error = 0.0\nsamples = 1\nvalue = -0.195", fillcolor="#eeae80"] ;
186 -> 187 ;
188 [label="squared_error = -0.0\nsamples = 1\nvalue = -0.221", fillcolor="#eeaf81"] ;
186 -> 188 ;
189 [label="X[0] <= 117.5\nsquared_error = 0.0\nsamples = 3\nvalue = -0.252", fillcolor="#efaf82"] ;
185 -> 189 ;
190 [label="squared_error = 0.0\nsamples = 1\nvalue = -0.244", fillcolor="#efaf81"] ;
189 -> 190 ;
191 [label="X[0] <= 119.0\nsquared_error = 0.0\nsamples = 2\nvalue = -0.256", fillcolor="#efaf82"] ;
189 -> 191 ;
192 [label="squared_error = 0.0\nsamples = 1\nvalue = -0.255", fillcolor="#efaf82"] ;
191 -> 192 ;
193 [label="squared_error = -0.0\nsamples = 1\nvalue = -0.256", fillcolor="#efaf82"] ;
191 -> 193 ;
194 [label="X[0] <= 126.5\nsquared_error = 0.002\nsamples = 8\nvalue = -0.312", fillcolor="#efb083"] ;
184 -> 194 ;
195 [label="X[0] <= 124.5\nsquared_error = 0.001\nsamples = 5\nvalue = -0.337", fillcolor="#efb184"] ;
194 -> 195 ;
196 [label="X[0] <= 122.5\nsquared_error = 0.0\nsamples = 3\nvalue = -0.31", fillcolor="#efb083"] ;
195 -> 196 ;
197 [label="squared_error = 0.0\nsamples = 1\nvalue = -0.322", fillcolor="#efb184"] ;
196 -> 197 ;
198 [label="X[0] <= 123.5\nsquared_error = 0.0\nsamples = 2\nvalue = -0.304", fillcolor="#efb083"] ;
196 -> 198 ;
199 [label="squared_error = 0.0\nsamples = 1\nvalue = -0.289", fillcolor="#efb083"] ;
198 -> 199 ;
200 [label="squared_error = -0.0\nsamples = 1\nvalue = -0.318", fillcolor="#efb084"] ;
198 -> 200 ;
201 [label="X[0] <= 125.5\nsquared_error = 0.0\nsamples = 2\nvalue = -0.379", fillcolor="#efb285"] ;
195 -> 201 ;
202 [label="squared_error = 0.0\nsamples = 1\nvalue = -0.364", fillcolor="#efb185"] ;
201 -> 202 ;
203 [label="squared_error = -0.0\nsamples = 1\nvalue = -0.393", fillcolor="#efb286"] ;
201 -> 203 ;
204 [label="X[0] <= 128.5\nsquared_error = 0.0\nsamples = 3\nvalue = -0.271", fillcolor="#efb082"] ;
194 -> 204 ;
205 [label="X[0] <= 127.5\nsquared_error = 0.0\nsamples = 2\nvalue = -0.262", fillcolor="#efaf82"] ;
204 -> 205 ;
206 [label="squared_error = 0.0\nsamples = 1\nvalue = -0.266", fillcolor="#efb082"] ;
205 -> 206 ;
207 [label="squared_error = 0.0\nsamples = 1\nvalue = -0.257", fillcolor="#efaf82"] ;
205 -> 207 ;
208 [label="squared_error = -0.0\nsamples = 1\nvalue = -0.289", fillcolor="#efb083"] ;
204 -> 208 ;
209 [label="squared_error = -0.0\nsamples = 1\nvalue = -0.162", fillcolor="#eeae7f"] ;
183 -> 209 ;
210 [label="X[0] <= 140.0\nsquared_error = 0.363\nsamples = 9\nvalue = 0.397", fillcolor="#eca36f"] ;
180 -> 210 ;
211 [label="X[0] <= 131.5\nsquared_error = 0.092\nsamples = 8\nvalue = 0.584", fillcolor="#eba06a"] ;
210 -> 211 ;
212 [label="squared_error = 0.0\nsamples = 1\nvalue = 0.16", fillcolor="#eda876"] ;
211 -> 212 ;
213 [label="X[0] <= 134.5\nsquared_error = 0.076\nsamples = 7\nvalue = 0.645", fillcolor="#eb9f68"] ;
211 -> 213 ;
214 [label="X[0] <= 132.5\nsquared_error = 0.004\nsamples = 3\nvalue = 0.841", fillcolor="#ea9b62"] ;
213 -> 214 ;
215 [label="squared_error = 0.0\nsamples = 1\nvalue = 0.792", fillcolor="#eb9c64"] ;
214 -> 215 ;
216 [label="X[0] <= 133.5\nsquared_error = 0.005\nsamples = 2\nvalue = 0.865", fillcolor="#ea9b61"] ;
214 -> 216 ;
217 [label="squared_error = 0.0\nsamples = 1\nvalue = 0.934", fillcolor="#ea995f"] ;
216 -> 217 ;
218 [label="squared_error = 0.0\nsamples = 1\nvalue = 0.797", fillcolor="#eb9c63"] ;
216 -> 218 ;
219 [label="X[0] <= 138.0\nsquared_error = 0.08\nsamples = 4\nvalue = 0.497", fillcolor="#eca16c"] ;
213 -> 219 ;
220 [label="X[0] <= 135.5\nsquared_error = 0.025\nsamples = 3\nvalue = 0.355", fillcolor="#eca470"] ;
219 -> 220 ;
221 [label="squared_error = 0.0\nsamples = 1\nvalue = 0.579", fillcolor="#eba06a"] ;
220 -> 221 ;
222 [label="X[0] <= 136.5\nsquared_error = 0.0\nsamples = 2\nvalue = 0.243", fillcolor="#eda673"] ;
220 -> 222 ;
223 [label="squared_error = 0.0\nsamples = 1\nvalue = 0.258", fillcolor="#eda673"] ;
222 -> 223 ;
224 [label="squared_error = 0.0\nsamples = 1\nvalue = 0.228", fillcolor="#eda674"] ;
222 -> 224 ;
225 [label="squared_error = -0.0\nsamples = 1\nvalue = 0.925", fillcolor="#ea9a60"] ;
219 -> 225 ;
226 [label="squared_error = 0.0\nsamples = 1\nvalue = -1.101", fillcolor="#f2bf9a"] ;
210 -> 226 ;
227 [label="X[0] <= 146.5\nsquared_error = 2.137\nsamples = 8\nvalue = -2.92", fillcolor="#f9e0cf"] ;
179 -> 227 ;
228 [label="X[0] <= 145.5\nsquared_error = 0.185\nsamples = 5\nvalue = -4.009", fillcolor="#fdf4ee"] ;
227 -> 228 ;
229 [label="X[0] <= 142.5\nsquared_error = 0.044\nsamples = 4\nvalue = -4.203", fillcolor="#fef8f4"] ;
228 -> 229 ;
230 [label="squared_error = 0.0\nsamples = 1\nvalue = -3.997", fillcolor="#fdf4ee"] ;
229 -> 230 ;
231 [label="X[0] <= 144.5\nsquared_error = 0.039\nsamples = 3\nvalue = -4.272", fillcolor="#fef9f6"] ;
229 -> 231 ;
232 [label="X[0] <= 143.5\nsquared_error = 0.012\nsamples = 2\nvalue = -4.396", fillcolor="#fefcfa"] ;
231 -> 232 ;
233 [label="squared_error = 0.0\nsamples = 1\nvalue = -4.286", fillcolor="#fefaf6"] ;
232 -> 233 ;
234 [label="squared_error = -0.0\nsamples = 1\nvalue = -4.507", fillcolor="#fffefd"] ;
232 -> 234 ;
235 [label="squared_error = 0.0\nsamples = 1\nvalue = -4.022", fillcolor="#fdf5ef"] ;
231 -> 235 ;
236 [label="squared_error = 0.0\nsamples = 1\nvalue = -3.234", fillcolor="#fae6d8"] ;
228 -> 236 ;
237 [label="X[0] <= 147.5\nsquared_error = 0.116\nsamples = 3\nvalue = -1.104", fillcolor="#f2bf9a"] ;
227 -> 237 ;
238 [label="squared_error = 0.0\nsamples = 1\nvalue = -1.566", fillcolor="#f4c7a8"] ;
237 -> 238 ;
239 [label="X[0] <= 148.5\nsquared_error = 0.014\nsamples = 2\nvalue = -0.873", fillcolor="#f1bb94"] ;
237 -> 239 ;
240 [label="squared_error = 0.0\nsamples = 1\nvalue = -0.992", fillcolor="#f1bd97"] ;
239 -> 240 ;
241 [label="squared_error = 0.0\nsamples = 1\nvalue = -0.755", fillcolor="#f0b990"] ;
239 -> 241 ;
242 [label="X[0] <= 251.0\nsquared_error = 0.346\nsamples = 108\nvalue = 0.17", fillcolor="#eda876"] ;
178 -> 242 ;
243 [label="X[0] <= 237.5\nsquared_error = 0.252\nsamples = 83\nvalue = 0.289", fillcolor="#eca572"] ;
242 -> 243 ;
244 [label="X[0] <= 186.5\nsquared_error = 0.048\nsamples = 73\nvalue = 0.134", fillcolor="#eda877"] ;
243 -> 244 ;
245 [label="X[0] <= 166.5\nsquared_error = 0.036\nsamples = 34\nvalue = -0.034", fillcolor="#eeab7b"] ;
244 -> 245 ;
246 [label="X[0] <= 160.5\nsquared_error = 0.008\nsamples = 16\nvalue = 0.121", fillcolor="#eda877"] ;
245 -> 246 ;
247 [label="X[0] <= 150.5\nsquared_error = 0.006\nsamples = 10\nvalue = 0.169", fillcolor="#eda876"] ;
246 -> 247 ;
248 [label="squared_error = 0.0\nsamples = 1\nvalue = 0.042", fillcolor="#edaa79"] ;
247 -> 248 ;
249 [label="X[0] <= 157.5\nsquared_error = 0.004\nsamples = 9\nvalue = 0.183", fillcolor="#eda775"] ;
247 -> 249 ;
250 [label="X[0] <= 152.5\nsquared_error = 0.002\nsamples = 6\nvalue = 0.212", fillcolor="#eda774"] ;
249 -> 250 ;
251 [label="X[0] <= 151.5\nsquared_error = 0.0\nsamples = 2\nvalue = 0.166", fillcolor="#eda876"] ;
250 -> 251 ;
252 [label="squared_error = 0.0\nsamples = 1\nvalue = 0.149", fillcolor="#eda876"] ;
251 -> 252 ;
253 [label="squared_error = 0.0\nsamples = 1\nvalue = 0.184", fillcolor="#eda775"] ;
251 -> 253 ;
254 [label="X[0] <= 153.5\nsquared_error = 0.001\nsamples = 4\nvalue = 0.236", fillcolor="#eda674"] ;
250 -> 254 ;
255 [label="squared_error = 0.0\nsamples = 1\nvalue = 0.295", fillcolor="#eca572"] ;
254 -> 255 ;
256 [label="X[0] <= 154.5\nsquared_error = 0.0\nsamples = 3\nvalue = 0.216", fillcolor="#eda774"] ;
254 -> 256 ;
257 [label="squared_error = 0.0\nsamples = 1\nvalue = 0.19", fillcolor="#eda775"] ;
256 -> 257 ;
258 [label="X[0] <= 156.0\nsquared_error = 0.0\nsamples = 2\nvalue = 0.229", fillcolor="#eda674"] ;
256 -> 258 ;
259 [label="squared_error = 0.0\nsamples = 1\nvalue = 0.236", fillcolor="#eda674"] ;
258 -> 259 ;
260 [label="squared_error = 0.0\nsamples = 1\nvalue = 0.222", fillcolor="#eda774"] ;
258 -> 260 ;
261 [label="X[0] <= 158.5\nsquared_error = 0.003\nsamples = 3\nvalue = 0.123", fillcolor="#eda877"] ;
249 -> 261 ;
262 [label="squared_error = 0.0\nsamples = 1\nvalue = 0.05", fillcolor="#edaa79"] ;
261 -> 262 ;
263 [label="X[0] <= 159.5\nsquared_error = 0.0\nsamples = 2\nvalue = 0.159", fillcolor="#eda876"] ;
261 -> 263 ;
264 [label="squared_error = 0.0\nsamples = 1\nvalue = 0.178", fillcolor="#eda775"] ;
263 -> 264 ;
265 [label="squared_error = 0.0\nsamples = 1\nvalue = 0.14", fillcolor="#eda876"] ;
263 -> 265 ;
266 [label="X[0] <= 163.5\nsquared_error = 0.001\nsamples = 6\nvalue = 0.043", fillcolor="#edaa79"] ;
246 -> 266 ;
267 [label="X[0] <= 162.5\nsquared_error = 0.001\nsamples = 3\nvalue = 0.065", fillcolor="#eda979"] ;
266 -> 267 ;
268 [label="X[0] <= 161.5\nsquared_error = 0.0\nsamples = 2\nvalue = 0.045", fillcolor="#edaa79"] ;
267 -> 268 ;
269 [label="squared_error = 0.0\nsamples = 1\nvalue = 0.047", fillcolor="#edaa79"] ;
268 -> 269 ;
270 [label="squared_error = 0.0\nsamples = 1\nvalue = 0.043", fillcolor="#edaa79"] ;
268 -> 270 ;
271 [label="squared_error = 0.0\nsamples = 1\nvalue = 0.107", fillcolor="#eda977"] ;
267 -> 271 ;
272 [label="X[0] <= 165.5\nsquared_error = 0.0\nsamples = 3\nvalue = 0.021", fillcolor="#eeaa7a"] ;
266 -> 272 ;
273 [label="X[0] <= 164.5\nsquared_error = 0.0\nsamples = 2\nvalue = 0.008", fillcolor="#eeaa7a"] ;
272 -> 273 ;
274 [label="squared_error = 0.0\nsamples = 1\nvalue = 0.013", fillcolor="#eeaa7a"] ;
273 -> 274 ;
275 [label="squared_error = -0.0\nsamples = 1\nvalue = 0.004", fillcolor="#eeab7a"] ;
273 -> 275 ;
276 [label="squared_error = 0.0\nsamples = 1\nvalue = 0.046", fillcolor="#edaa79"] ;
272 -> 276 ;
277 [label="X[0] <= 182.5\nsquared_error = 0.02\nsamples = 18\nvalue = -0.172", fillcolor="#eeae7f"] ;
245 -> 277 ;
278 [label="X[0] <= 170.5\nsquared_error = 0.008\nsamples = 14\nvalue = -0.231", fillcolor="#eeaf81"] ;
277 -> 278 ;
279 [label="X[0] <= 169.0\nsquared_error = 0.002\nsamples = 3\nvalue = -0.091", fillcolor="#eeac7d"] ;
278 -> 279 ;
280 [label="X[0] <= 167.5\nsquared_error = 0.0\nsamples = 2\nvalue = -0.059", fillcolor="#eeac7c"] ;
279 -> 280 ;
281 [label="squared_error = 0.0\nsamples = 1\nvalue = -0.046", fillcolor="#eeab7c"] ;
280 -> 281 ;
282 [label="squared_error = 0.0\nsamples = 1\nvalue = -0.073", fillcolor="#eeac7d"] ;
280 -> 282 ;
283 [label="squared_error = 0.0\nsamples = 1\nvalue = -0.154", fillcolor="#eead7f"] ;
279 -> 283 ;
284 [label="X[0] <= 179.5\nsquared_error = 0.003\nsamples = 11\nvalue = -0.27", fillcolor="#efb082"] ;
278 -> 284 ;
285 [label="X[0] <= 173.5\nsquared_error = 0.002\nsamples = 8\nvalue = -0.295", fillcolor="#efb083"] ;
284 -> 285 ;
286 [label="X[0] <= 171.5\nsquared_error = 0.0\nsamples = 3\nvalue = -0.243", fillcolor="#efaf81"] ;
285 -> 286 ;
287 [label="squared_error = 0.0\nsamples = 1\nvalue = -0.227", fillcolor="#eeaf81"] ;
286 -> 287 ;
288 [label="X[0] <= 172.5\nsquared_error = 0.0\nsamples = 2\nvalue = -0.251", fillcolor="#efaf82"] ;
286 -> 288 ;
289 [label="squared_error = 0.0\nsamples = 1\nvalue = -0.249", fillcolor="#efaf82"] ;
288 -> 289 ;
290 [label="squared_error = 0.0\nsamples = 1\nvalue = -0.253", fillcolor="#efaf82"] ;
288 -> 290 ;
291 [label="X[0] <= 176.5\nsquared_error = 0.0\nsamples = 5\nvalue = -0.326", fillcolor="#efb184"] ;
285 -> 291 ;
292 [label="X[0] <= 175.0\nsquared_error = 0.0\nsamples = 2\nvalue = -0.339", fillcolor="#efb184"] ;
291 -> 292 ;
293 [label="squared_error = 0.0\nsamples = 1\nvalue = -0.333", fillcolor="#efb184"] ;
292 -> 293 ;
294 [label="squared_error = 0.0\nsamples = 1\nvalue = -0.346", fillcolor="#efb184"] ;
292 -> 294 ;
295 [label="X[0] <= 178.5\nsquared_error = 0.0\nsamples = 3\nvalue = -0.317", fillcolor="#efb084"] ;
291 -> 295 ;
296 [label="X[0] <= 177.5\nsquared_error = 0.0\nsamples = 2\nvalue = -0.322", fillcolor="#efb184"] ;
295 -> 296 ;
297 [label="squared_error = 0.0\nsamples = 1\nvalue = -0.311", fillcolor="#efb083"] ;
296 -> 297 ;
298 [label="squared_error = 0.0\nsamples = 1\nvalue = -0.334", fillcolor="#efb184"] ;
296 -> 298 ;
299 [label="squared_error = 0.0\nsamples = 1\nvalue = -0.306", fillcolor="#efb083"] ;
295 -> 299 ;
300 [label="X[0] <= 180.5\nsquared_error = 0.0\nsamples = 3\nvalue = -0.202", fillcolor="#eeae80"] ;
284 -> 300 ;
301 [label="squared_error = 0.0\nsamples = 1\nvalue = -0.175", fillcolor="#eeae7f"] ;
300 -> 301 ;
302 [label="X[0] <= 181.5\nsquared_error = 0.0\nsamples = 2\nvalue = -0.215", fillcolor="#eeaf81"] ;
300 -> 302 ;
303 [label="squared_error = 0.0\nsamples = 1\nvalue = -0.206", fillcolor="#eeae80"] ;
302 -> 303 ;
304 [label="squared_error = -0.0\nsamples = 1\nvalue = -0.224", fillcolor="#eeaf81"] ;
302 -> 304 ;
305 [label="X[0] <= 184.5\nsquared_error = 0.005\nsamples = 4\nvalue = 0.036", fillcolor="#edaa79"] ;
277 -> 305 ;
306 [label="X[0] <= 183.5\nsquared_error = 0.0\nsamples = 2\nvalue = -0.034", fillcolor="#eeab7b"] ;
305 -> 306 ;
307 [label="squared_error = 0.0\nsamples = 1\nvalue = -0.049", fillcolor="#eeac7c"] ;
306 -> 307 ;
308 [label="squared_error = 0.0\nsamples = 1\nvalue = -0.02", fillcolor="#eeab7b"] ;
306 -> 308 ;
309 [label="X[0] <= 185.5\nsquared_error = 0.0\nsamples = 2\nvalue = 0.106", fillcolor="#eda977"] ;
305 -> 309 ;
310 [label="squared_error = 0.0\nsamples = 1\nvalue = 0.095", fillcolor="#eda978"] ;
309 -> 310 ;
311 [label="squared_error = -0.0\nsamples = 1\nvalue = 0.117", fillcolor="#eda877"] ;
309 -> 311 ;
312 [label="X[0] <= 235.5\nsquared_error = 0.014\nsamples = 39\nvalue = 0.279", fillcolor="#eda672"] ;
244 -> 312 ;
313 [label="X[0] <= 205.0\nsquared_error = 0.009\nsamples = 37\nvalue = 0.264", fillcolor="#eda673"] ;
312 -> 313 ;
314 [label="X[0] <= 189.5\nsquared_error = 0.002\nsamples = 15\nvalue = 0.209", fillcolor="#eda774"] ;
313 -> 314 ;
315 [label="X[0] <= 188.5\nsquared_error = 0.001\nsamples = 3\nvalue = 0.185", fillcolor="#eda775"] ;
314 -> 315 ;
316 [label="X[0] <= 187.5\nsquared_error = 0.001\nsamples = 2\nvalue = 0.208", fillcolor="#eda774"] ;
315 -> 316 ;
317 [label="squared_error = 0.0\nsamples = 1\nvalue = 0.185", fillcolor="#eda775"] ;
316 -> 317 ;
318 [label="squared_error = 0.0\nsamples = 1\nvalue = 0.231", fillcolor="#eda674"] ;
316 -> 318 ;
319 [label="squared_error = -0.0\nsamples = 1\nvalue = 0.138", fillcolor="#eda876"] ;
315 -> 319 ;
320 [label="X[0] <= 193.0\nsquared_error = 0.001\nsamples = 12\nvalue = 0.215", fillcolor="#eda774"] ;
314 -> 320 ;
321 [label="X[0] <= 190.5\nsquared_error = 0.0\nsamples = 3\nvalue = 0.258", fillcolor="#eda673"] ;
320 -> 321 ;
322 [label="squared_error = 0.0\nsamples = 1\nvalue = 0.244", fillcolor="#eda673"] ;
321 -> 322 ;
323 [label="X[0] <= 191.5\nsquared_error = 0.0\nsamples = 2\nvalue = 0.265", fillcolor="#eda673"] ;
321 -> 323 ;
324 [label="squared_error = 0.0\nsamples = 1\nvalue = 0.272", fillcolor="#eda673"] ;
323 -> 324 ;
325 [label="squared_error = -0.0\nsamples = 1\nvalue = 0.259", fillcolor="#eda673"] ;
323 -> 325 ;
326 [label="X[0] <= 194.5\nsquared_error = 0.001\nsamples = 9\nvalue = 0.201", fillcolor="#eda775"] ;
320 -> 326 ;
327 [label="squared_error = 0.0\nsamples = 1\nvalue = 0.127", fillcolor="#eda877"] ;
326 -> 327 ;
328 [label="X[0] <= 197.0\nsquared_error = 0.0\nsamples = 8\nvalue = 0.21", fillcolor="#eda774"] ;
326 -> 328 ;
329 [label="X[0] <= 195.5\nsquared_error = 0.001\nsamples = 2\nvalue = 0.229", fillcolor="#eda674"] ;
328 -> 329 ;
330 [label="squared_error = 0.0\nsamples = 1\nvalue = 0.202", fillcolor="#eda775"] ;
329 -> 330 ;
331 [label="squared_error = 0.0\nsamples = 1\nvalue = 0.256", fillcolor="#eda673"] ;
329 -> 331 ;
332 [label="X[0] <= 199.0\nsquared_error = 0.0\nsamples = 6\nvalue = 0.204", fillcolor="#eda775"] ;
328 -> 332 ;
333 [label="squared_error = 0.0\nsamples = 1\nvalue = 0.21", fillcolor="#eda774"] ;
332 -> 333 ;
334 [label="X[0] <= 200.5\nsquared_error = 0.0\nsamples = 5\nvalue = 0.203", fillcolor="#eda775"] ;
332 -> 334 ;
335 [label="squared_error = 0.0\nsamples = 1\nvalue = 0.191", fillcolor="#eda775"] ;
334 -> 335 ;
336 [label="X[0] <= 202.5\nsquared_error = 0.0\nsamples = 4\nvalue = 0.206", fillcolor="#eda774"] ;
334 -> 336 ;
337 [label="X[0] <= 201.5\nsquared_error = 0.0\nsamples = 2\nvalue = 0.209", fillcolor="#eda774"] ;
336 -> 337 ;
338 [label="squared_error = 0.0\nsamples = 1\nvalue = 0.211", fillcolor="#eda774"] ;
337 -> 338 ;
339 [label="squared_error = 0.0\nsamples = 1\nvalue = 0.207", fillcolor="#eda774"] ;
337 -> 339 ;
340 [label="X[0] <= 203.5\nsquared_error = 0.0\nsamples = 2\nvalue = 0.203", fillcolor="#eda775"] ;
336 -> 340 ;
341 [label="squared_error = 0.0\nsamples = 1\nvalue = 0.205", fillcolor="#eda775"] ;
340 -> 341 ;
342 [label="squared_error = -0.0\nsamples = 1\nvalue = 0.201", fillcolor="#eda775"] ;
340 -> 342 ;
343 [label="X[0] <= 223.5\nsquared_error = 0.011\nsamples = 22\nvalue = 0.301", fillcolor="#eca572"] ;
313 -> 343 ;
344 [label="X[0] <= 211.0\nsquared_error = 0.004\nsamples = 11\nvalue = 0.386", fillcolor="#eca46f"] ;
343 -> 344 ;
345 [label="X[0] <= 206.5\nsquared_error = 0.002\nsamples = 3\nvalue = 0.312", fillcolor="#eca571"] ;
344 -> 345 ;
346 [label="squared_error = 0.0\nsamples = 1\nvalue = 0.348", fillcolor="#eca470"] ;
345 -> 346 ;
347 [label="X[0] <= 207.5\nsquared_error = 0.001\nsamples = 2\nvalue = 0.293", fillcolor="#eca572"] ;
345 -> 347 ;
348 [label="squared_error = 0.0\nsamples = 1\nvalue = 0.255", fillcolor="#eda673"] ;
347 -> 348 ;
349 [label="squared_error = -0.0\nsamples = 1\nvalue = 0.332", fillcolor="#eca571"] ;
347 -> 349 ;
350 [label="X[0] <= 219.0\nsquared_error = 0.002\nsamples = 8\nvalue = 0.413", fillcolor="#eca36e"] ;
344 -> 350 ;
351 [label="X[0] <= 214.5\nsquared_error = 0.001\nsamples = 4\nvalue = 0.45", fillcolor="#eca26d"] ;
350 -> 351 ;
352 [label="squared_error = 0.0\nsamples = 1\nvalue = 0.403", fillcolor="#eca36f"] ;
351 -> 352 ;
353 [label="X[0] <= 216.0\nsquared_error = 0.0\nsamples = 3\nvalue = 0.465", fillcolor="#eca26d"] ;
351 -> 353 ;
354 [label="squared_error = 0.0\nsamples = 1\nvalue = 0.479", fillcolor="#eca26d"] ;
353 -> 354 ;
355 [label="X[0] <= 217.5\nsquared_error = 0.0\nsamples = 2\nvalue = 0.458", fillcolor="#eca26d"] ;
353 -> 355 ;
356 [label="squared_error = 0.0\nsamples = 1\nvalue = 0.464", fillcolor="#eca26d"] ;
355 -> 356 ;
357 [label="squared_error = -0.0\nsamples = 1\nvalue = 0.452", fillcolor="#eca26d"] ;
355 -> 357 ;
358 [label="X[0] <= 221.5\nsquared_error = 0.0\nsamples = 4\nvalue = 0.377", fillcolor="#eca470"] ;
350 -> 358 ;
359 [label="X[0] <= 220.5\nsquared_error = 0.0\nsamples = 2\nvalue = 0.361", fillcolor="#eca470"] ;
358 -> 359 ;
360 [label="squared_error = 0.0\nsamples = 1\nvalue = 0.38", fillcolor="#eca46f"] ;
359 -> 360 ;
361 [label="squared_error = -0.0\nsamples = 1\nvalue = 0.343", fillcolor="#eca471"] ;
359 -> 361 ;
362 [label="X[0] <= 222.5\nsquared_error = 0.0\nsamples = 2\nvalue = 0.393", fillcolor="#eca36f"] ;
358 -> 362 ;
363 [label="squared_error = 0.0\nsamples = 1\nvalue = 0.399", fillcolor="#eca36f"] ;
362 -> 363 ;
364 [label="squared_error = 0.0\nsamples = 1\nvalue = 0.388", fillcolor="#eca46f"] ;
362 -> 364 ;
365 [label="X[0] <= 228.0\nsquared_error = 0.003\nsamples = 11\nvalue = 0.215", fillcolor="#eda774"] ;
343 -> 365 ;
366 [label="X[0] <= 226.5\nsquared_error = 0.0\nsamples = 4\nvalue = 0.269", fillcolor="#eda673"] ;
365 -> 366 ;
367 [label="X[0] <= 224.5\nsquared_error = 0.0\nsamples = 3\nvalue = 0.275", fillcolor="#eda672"] ;
366 -> 367 ;
368 [label="squared_error = 0.0\nsamples = 1\nvalue = 0.256", fillcolor="#eda673"] ;
367 -> 368 ;
369 [label="X[0] <= 225.5\nsquared_error = 0.0\nsamples = 2\nvalue = 0.285", fillcolor="#eda572"] ;
367 -> 369 ;
370 [label="squared_error = 0.0\nsamples = 1\nvalue = 0.284", fillcolor="#eda572"] ;
369 -> 370 ;
371 [label="squared_error = -0.0\nsamples = 1\nvalue = 0.285", fillcolor="#eda572"] ;
369 -> 371 ;
372 [label="squared_error = 0.0\nsamples = 1\nvalue = 0.25", fillcolor="#eda673"] ;
366 -> 372 ;
373 [label="X[0] <= 234.5\nsquared_error = 0.002\nsamples = 7\nvalue = 0.185", fillcolor="#eda775"] ;
365 -> 373 ;
374 [label="X[0] <= 230.5\nsquared_error = 0.001\nsamples = 6\nvalue = 0.169", fillcolor="#eda876"] ;
373 -> 374 ;
375 [label="X[0] <= 229.5\nsquared_error = 0.0\nsamples = 2\nvalue = 0.146", fillcolor="#eda876"] ;
374 -> 375 ;
376 [label="squared_error = 0.0\nsamples = 1\nvalue = 0.149", fillcolor="#eda876"] ;
375 -> 376 ;
377 [label="squared_error = 0.0\nsamples = 1\nvalue = 0.142", fillcolor="#eda876"] ;
375 -> 377 ;
378 [label="X[0] <= 231.5\nsquared_error = 0.001\nsamples = 4\nvalue = 0.181", fillcolor="#eda775"] ;
374 -> 378 ;
379 [label="squared_error = 0.0\nsamples = 1\nvalue = 0.222", fillcolor="#eda774"] ;
378 -> 379 ;
380 [label="X[0] <= 233.5\nsquared_error = 0.0\nsamples = 3\nvalue = 0.167", fillcolor="#eda876"] ;
378 -> 380 ;
381 [label="X[0] <= 232.5\nsquared_error = 0.0\nsamples = 2\nvalue = 0.162", fillcolor="#eda876"] ;
380 -> 381 ;
382 [label="squared_error = 0.0\nsamples = 1\nvalue = 0.173", fillcolor="#eda775"] ;
381 -> 382 ;
383 [label="squared_error = -0.0\nsamples = 1\nvalue = 0.151", fillcolor="#eda876"] ;
381 -> 383 ;
384 [label="squared_error = 0.0\nsamples = 1\nvalue = 0.177", fillcolor="#eda775"] ;
380 -> 384 ;
385 [label="squared_error = 0.0\nsamples = 1\nvalue = 0.281", fillcolor="#eda572"] ;
373 -> 385 ;
386 [label="X[0] <= 236.5\nsquared_error = 0.007\nsamples = 2\nvalue = 0.575", fillcolor="#eba06a"] ;
312 -> 386 ;
387 [label="squared_error = 0.0\nsamples = 1\nvalue = 0.49", fillcolor="#eca26c"] ;
386 -> 387 ;
388 [label="squared_error = 0.0\nsamples = 1\nvalue = 0.661", fillcolor="#eb9e67"] ;
386 -> 388 ;
389 [label="X[0] <= 248.0\nsquared_error = 0.269\nsamples = 10\nvalue = 1.427", fillcolor="#e89051"] ;
243 -> 389 ;
390 [label="X[0] <= 240.0\nsquared_error = 0.181\nsamples = 8\nvalue = 1.599", fillcolor="#e88d4c"] ;
389 -> 390 ;
391 [label="X[0] <= 238.5\nsquared_error = 0.004\nsamples = 2\nvalue = 0.96", fillcolor="#ea995f"] ;
390 -> 391 ;
392 [label="squared_error = 0.0\nsamples = 1\nvalue = 0.893", fillcolor="#ea9a61"] ;
391 -> 392 ;
393 [label="squared_error = 0.0\nsamples = 1\nvalue = 1.027", fillcolor="#ea985d"] ;
391 -> 393 ;
394 [label="X[0] <= 246.5\nsquared_error = 0.058\nsamples = 6\nvalue = 1.812", fillcolor="#e78946"] ;
390 -> 394 ;
395 [label="X[0] <= 241.5\nsquared_error = 0.048\nsamples = 5\nvalue = 1.873", fillcolor="#e68844"] ;
394 -> 395 ;
396 [label="squared_error = 0.0\nsamples = 1\nvalue = 1.557", fillcolor="#e88e4d"] ;
395 -> 396 ;
397 [label="X[0] <= 245.0\nsquared_error = 0.029\nsamples = 4\nvalue = 1.952", fillcolor="#e68742"] ;
395 -> 397 ;
398 [label="X[0] <= 242.5\nsquared_error = 0.023\nsamples = 3\nvalue = 2.015", fillcolor="#e68640"] ;
397 -> 398 ;
399 [label="squared_error = 0.0\nsamples = 1\nvalue = 1.808", fillcolor="#e78946"] ;
398 -> 399 ;
400 [label="X[0] <= 243.5\nsquared_error = 0.002\nsamples = 2\nvalue = 2.118", fillcolor="#e6843d"] ;
398 -> 400 ;
401 [label="squared_error = 0.0\nsamples = 1\nvalue = 2.164", fillcolor="#e5833c"] ;
400 -> 401 ;
402 [label="squared_error = 0.0\nsamples = 1\nvalue = 2.071", fillcolor="#e6853f"] ;
400 -> 402 ;
403 [label="squared_error = 0.0\nsamples = 1\nvalue = 1.764", fillcolor="#e78a47"] ;
397 -> 403 ;
404 [label="squared_error = -0.0\nsamples = 1\nvalue = 1.508", fillcolor="#e88f4f"] ;
394 -> 404 ;
405 [label="X[0] <= 249.5\nsquared_error = 0.025\nsamples = 2\nvalue = 0.736", fillcolor="#eb9d65"] ;
389 -> 405 ;
406 [label="squared_error = 0.0\nsamples = 1\nvalue = 0.895", fillcolor="#ea9a61"] ;
405 -> 406 ;
407 [label="squared_error = -0.0\nsamples = 1\nvalue = 0.578", fillcolor="#eba06a"] ;
405 -> 407 ;
408 [label="X[0] <= 269.5\nsquared_error = 0.453\nsamples = 25\nvalue = -0.226", fillcolor="#eeaf81"] ;
242 -> 408 ;
409 [label="X[0] <= 253.5\nsquared_error = 0.021\nsamples = 16\nvalue = -0.708", fillcolor="#f0b88f"] ;
408 -> 409 ;
410 [label="X[0] <= 252.5\nsquared_error = 0.013\nsamples = 2\nvalue = -0.401", fillcolor="#efb286"] ;
409 -> 410 ;
411 [label="squared_error = 0.0\nsamples = 1\nvalue = -0.286", fillcolor="#efb083"] ;
410 -> 411 ;
412 [label="squared_error = 0.0\nsamples = 1\nvalue = -0.516", fillcolor="#f0b489"] ;
410 -> 412 ;
413 [label="X[0] <= 268.5\nsquared_error = 0.006\nsamples = 14\nvalue = -0.752", fillcolor="#f0b890"] ;
409 -> 413 ;
414 [label="X[0] <= 267.5\nsquared_error = 0.002\nsamples = 13\nvalue = -0.77", fillcolor="#f1b991"] ;
413 -> 414 ;
415 [label="X[0] <= 265.5\nsquared_error = 0.002\nsamples = 12\nvalue = -0.777", fillcolor="#f1b991"] ;
414 -> 415 ;
416 [label="X[0] <= 262.5\nsquared_error = 0.002\nsamples = 10\nvalue = -0.77", fillcolor="#f1b991"] ;
415 -> 416 ;
417 [label="X[0] <= 255.0\nsquared_error = 0.002\nsamples = 7\nvalue = -0.783", fillcolor="#f1b991"] ;
416 -> 417 ;
418 [label="squared_error = 0.0\nsamples = 1\nvalue = -0.733", fillcolor="#f0b890"] ;
417 -> 418 ;
419 [label="X[0] <= 257.5\nsquared_error = 0.002\nsamples = 6\nvalue = -0.791", fillcolor="#f1b991"] ;
417 -> 419 ;
420 [label="X[0] <= 256.5\nsquared_error = 0.0\nsamples = 2\nvalue = -0.82", fillcolor="#f1ba92"] ;
419 -> 420 ;
421 [label="squared_error = 0.0\nsamples = 1\nvalue = -0.803", fillcolor="#f1b992"] ;
420 -> 421 ;
422 [label="squared_error = 0.0\nsamples = 1\nvalue = -0.836", fillcolor="#f1ba93"] ;
420 -> 422 ;
423 [label="X[0] <= 261.5\nsquared_error = 0.002\nsamples = 4\nvalue = -0.777", fillcolor="#f1b991"] ;
419 -> 423 ;
424 [label="X[0] <= 260.0\nsquared_error = 0.001\nsamples = 3\nvalue = -0.758", fillcolor="#f0b990"] ;
423 -> 424 ;
425 [label="X[0] <= 258.5\nsquared_error = 0.0\nsamples = 2\nvalue = -0.776", fillcolor="#f1b991"] ;
424 -> 425 ;
426 [label="squared_error = 0.0\nsamples = 1\nvalue = -0.778", fillcolor="#f1b991"] ;
425 -> 426 ;
427 [label="squared_error = 0.0\nsamples = 1\nvalue = -0.775", fillcolor="#f1b991"] ;
425 -> 427 ;
428 [label="squared_error = 0.0\nsamples = 1\nvalue = -0.721", fillcolor="#f0b88f"] ;
424 -> 428 ;
429 [label="squared_error = -0.0\nsamples = 1\nvalue = -0.832", fillcolor="#f1ba93"] ;
423 -> 429 ;
430 [label="X[0] <= 263.5\nsquared_error = 0.0\nsamples = 3\nvalue = -0.741", fillcolor="#f0b890"] ;
416 -> 430 ;
431 [label="squared_error = 0.0\nsamples = 1\nvalue = -0.712", fillcolor="#f0b88f"] ;
430 -> 431 ;
432 [label="X[0] <= 264.5\nsquared_error = 0.0\nsamples = 2\nvalue = -0.755", fillcolor="#f0b990"] ;
430 -> 432 ;
433 [label="squared_error = 0.0\nsamples = 1\nvalue = -0.752", fillcolor="#f0b890"] ;
432 -> 433 ;
434 [label="squared_error = 0.0\nsamples = 1\nvalue = -0.758", fillcolor="#f0b990"] ;
432 -> 434 ;
435 [label="X[0] <= 266.5\nsquared_error = 0.002\nsamples = 2\nvalue = -0.81", fillcolor="#f1ba92"] ;
415 -> 435 ;
436 [label="squared_error = 0.0\nsamples = 1\nvalue = -0.853", fillcolor="#f1ba93"] ;
435 -> 436 ;
437 [label="squared_error = -0.0\nsamples = 1\nvalue = -0.767", fillcolor="#f1b991"] ;
435 -> 437 ;
438 [label="squared_error = 0.0\nsamples = 1\nvalue = -0.688", fillcolor="#f0b78e"] ;
414 -> 438 ;
439 [label="squared_error = -0.0\nsamples = 1\nvalue = -0.52", fillcolor="#f0b489"] ;
413 -> 439 ;
440 [label="X[0] <= 270.5\nsquared_error = 0.076\nsamples = 9\nvalue = 0.631", fillcolor="#eb9f68"] ;
408 -> 440 ;
441 [label="squared_error = 0.0\nsamples = 1\nvalue = 0.039", fillcolor="#edaa79"] ;
440 -> 441 ;
442 [label="X[0] <= 278.5\nsquared_error = 0.036\nsamples = 8\nvalue = 0.705", fillcolor="#eb9e66"] ;
440 -> 442 ;
443 [label="X[0] <= 272.5\nsquared_error = 0.013\nsamples = 7\nvalue = 0.645", fillcolor="#eb9f68"] ;
442 -> 443 ;
444 [label="X[0] <= 271.5\nsquared_error = 0.0\nsamples = 2\nvalue = 0.549", fillcolor="#eca16b"] ;
443 -> 444 ;
445 [label="squared_error = 0.0\nsamples = 1\nvalue = 0.56", fillcolor="#eba06a"] ;
444 -> 445 ;
446 [label="squared_error = -0.0\nsamples = 1\nvalue = 0.538", fillcolor="#eca16b"] ;
444 -> 446 ;
447 [label="X[0] <= 276.0\nsquared_error = 0.013\nsamples = 5\nvalue = 0.684", fillcolor="#eb9e67"] ;
443 -> 447 ;
448 [label="X[0] <= 273.5\nsquared_error = 0.003\nsamples = 3\nvalue = 0.723", fillcolor="#eb9d66"] ;
447 -> 448 ;
449 [label="squared_error = 0.0\nsamples = 1\nvalue = 0.657", fillcolor="#eb9f67"] ;
448 -> 449 ;
450 [label="X[0] <= 274.5\nsquared_error = 0.001\nsamples = 2\nvalue = 0.756", fillcolor="#eb9d65"] ;
448 -> 450 ;
451 [label="squared_error = 0.0\nsamples = 1\nvalue = 0.787", fillcolor="#eb9c64"] ;
450 -> 451 ;
452 [label="squared_error = -0.0\nsamples = 1\nvalue = 0.724", fillcolor="#eb9d66"] ;
450 -> 452 ;
453 [label="X[0] <= 277.5\nsquared_error = 0.022\nsamples = 2\nvalue = 0.625", fillcolor="#eb9f68"] ;
447 -> 453 ;
454 [label="squared_error = 0.0\nsamples = 1\nvalue = 0.476", fillcolor="#eca26d"] ;
453 -> 454 ;
455 [label="squared_error = -0.0\nsamples = 1\nvalue = 0.774", fillcolor="#eb9c64"] ;
453 -> 455 ;
456 [label="squared_error = -0.0\nsamples = 1\nvalue = 1.12", fillcolor="#e9965a"] ;
442 -> 456 ;
457 [label="X[0] <= 287.0\nsquared_error = 1.247\nsamples = 40\nvalue = -0.805", fillcolor="#f1b992"] ;
17 -> 457 ;
458 [label="X[0] <= 282.0\nsquared_error = 2.177\nsamples = 6\nvalue = -2.967", fillcolor="#f9e1d0"] ;
457 -> 458 ;
459 [label="X[0] <= 280.5\nsquared_error = 0.189\nsamples = 2\nvalue = -1.002", fillcolor="#f1bd97"] ;
458 -> 459 ;
460 [label="squared_error = 0.0\nsamples = 1\nvalue = -1.436", fillcolor="#f3c5a4"] ;
459 -> 460 ;
461 [label="squared_error = 0.0\nsamples = 1\nvalue = -0.567", fillcolor="#f0b58b"] ;
459 -> 461 ;
462 [label="X[0] <= 285.5\nsquared_error = 0.275\nsamples = 4\nvalue = -3.949", fillcolor="#fdf3ed"] ;
458 -> 462 ;
463 [label="X[0] <= 283.5\nsquared_error = 0.084\nsamples = 3\nvalue = -4.215", fillcolor="#fef8f4"] ;
462 -> 463 ;
464 [label="squared_error = 0.0\nsamples = 1\nvalue = -3.874", fillcolor="#fcf2ea"] ;
463 -> 464 ;
465 [label="X[0] <= 284.5\nsquared_error = 0.039\nsamples = 2\nvalue = -4.386", fillcolor="#fefbf9"] ;
463 -> 465 ;
466 [label="squared_error = 0.0\nsamples = 1\nvalue = -4.584", fillcolor="#ffffff"] ;
465 -> 466 ;
467 [label="squared_error = -0.0\nsamples = 1\nvalue = -4.187", fillcolor="#fdf8f4"] ;
465 -> 467 ;
468 [label="squared_error = -0.0\nsamples = 1\nvalue = -3.151", fillcolor="#fae5d6"] ;
462 -> 468 ;
469 [label="X[0] <= 289.5\nsquared_error = 0.113\nsamples = 34\nvalue = -0.424", fillcolor="#efb287"] ;
457 -> 469 ;
470 [label="X[0] <= 288.5\nsquared_error = 0.024\nsamples = 2\nvalue = -1.337", fillcolor="#f3c3a1"] ;
469 -> 470 ;
471 [label="squared_error = 0.0\nsamples = 1\nvalue = -1.491", fillcolor="#f3c6a6"] ;
470 -> 471 ;
472 [label="squared_error = -0.0\nsamples = 1\nvalue = -1.184", fillcolor="#f2c09d"] ;
470 -> 472 ;
473 [label="X[0] <= 323.5\nsquared_error = 0.063\nsamples = 32\nvalue = -0.366", fillcolor="#efb185"] ;
469 -> 473 ;
474 [label="X[0] <= 303.5\nsquared_error = 0.018\nsamples = 25\nvalue = -0.476", fillcolor="#efb388"] ;
473 -> 474 ;
475 [label="X[0] <= 300.5\nsquared_error = 0.006\nsamples = 8\nvalue = -0.353", fillcolor="#efb185"] ;
474 -> 475 ;
476 [label="X[0] <= 297.0\nsquared_error = 0.006\nsamples = 6\nvalue = -0.329", fillcolor="#efb184"] ;
475 -> 476 ;
477 [label="X[0] <= 292.5\nsquared_error = 0.002\nsamples = 4\nvalue = -0.364", fillcolor="#efb185"] ;
476 -> 477 ;
478 [label="X[0] <= 290.5\nsquared_error = 0.003\nsamples = 2\nvalue = -0.339", fillcolor="#efb184"] ;
477 -> 478 ;
479 [label="squared_error = 0.0\nsamples = 1\nvalue = -0.394", fillcolor="#efb286"] ;
478 -> 479 ;
480 [label="squared_error = -0.0\nsamples = 1\nvalue = -0.283", fillcolor="#efb083"] ;
478 -> 480 ;
481 [label="X[0] <= 295.0\nsquared_error = 0.0\nsamples = 2\nvalue = -0.389", fillcolor="#efb286"] ;
477 -> 481 ;
482 [label="squared_error = 0.0\nsamples = 1\nvalue = -0.399", fillcolor="#efb286"] ;
481 -> 482 ;
483 [label="squared_error = 0.0\nsamples = 1\nvalue = -0.379", fillcolor="#efb285"] ;
481 -> 483 ;
484 [label="X[0] <= 298.5\nsquared_error = 0.006\nsamples = 2\nvalue = -0.259", fillcolor="#efaf82"] ;
476 -> 484 ;
485 [label="squared_error = 0.0\nsamples = 1\nvalue = -0.179", fillcolor="#eeae80"] ;
484 -> 485 ;
486 [label="squared_error = 0.0\nsamples = 1\nvalue = -0.34", fillcolor="#efb184"] ;
484 -> 486 ;
487 [label="X[0] <= 302.5\nsquared_error = 0.0\nsamples = 2\nvalue = -0.425", fillcolor="#efb287"] ;
475 -> 487 ;
488 [label="squared_error = 0.0\nsamples = 1\nvalue = -0.425", fillcolor="#efb287"] ;
487 -> 488 ;
489 [label="squared_error = -0.0\nsamples = 1\nvalue = -0.424", fillcolor="#efb287"] ;
487 -> 489 ;
490 [label="X[0] <= 320.5\nsquared_error = 0.013\nsamples = 17\nvalue = -0.533", fillcolor="#f0b48a"] ;
474 -> 490 ;
491 [label="X[0] <= 312.0\nsquared_error = 0.012\nsamples = 14\nvalue = -0.557", fillcolor="#f0b58b"] ;
490 -> 491 ;
492 [label="X[0] <= 309.5\nsquared_error = 0.002\nsamples = 8\nvalue = -0.502", fillcolor="#efb489"] ;
491 -> 492 ;
493 [label="X[0] <= 305.5\nsquared_error = 0.001\nsamples = 6\nvalue = -0.512", fillcolor="#f0b489"] ;
492 -> 493 ;
494 [label="X[0] <= 304.5\nsquared_error = 0.0\nsamples = 2\nvalue = -0.478", fillcolor="#efb388"] ;
493 -> 494 ;
495 [label="squared_error = 0.0\nsamples = 1\nvalue = -0.463", fillcolor="#efb388"] ;
494 -> 495 ;
496 [label="squared_error = 0.0\nsamples = 1\nvalue = -0.493", fillcolor="#efb489"] ;
494 -> 496 ;
497 [label="X[0] <= 308.5\nsquared_error = 0.0\nsamples = 4\nvalue = -0.528", fillcolor="#f0b48a"] ;
493 -> 497 ;
498 [label="X[0] <= 306.5\nsquared_error = 0.0\nsamples = 3\nvalue = -0.537", fillcolor="#f0b58a"] ;
497 -> 498 ;
499 [label="squared_error = 0.0\nsamples = 1\nvalue = -0.55", fillcolor="#f0b58a"] ;
498 -> 499 ;
500 [label="X[0] <= 307.5\nsquared_error = 0.0\nsamples = 2\nvalue = -0.53", fillcolor="#f0b48a"] ;
498 -> 500 ;
501 [label="squared_error = 0.0\nsamples = 1\nvalue = -0.53", fillcolor="#f0b48a"] ;
500 -> 501 ;
502 [label="squared_error = 0.0\nsamples = 1\nvalue = -0.531", fillcolor="#f0b48a"] ;
500 -> 502 ;
503 [label="squared_error = 0.0\nsamples = 1\nvalue = -0.502", fillcolor="#f0b489"] ;
497 -> 503 ;
504 [label="X[0] <= 310.5\nsquared_error = 0.003\nsamples = 2\nvalue = -0.472", fillcolor="#efb388"] ;
492 -> 504 ;
505 [label="squared_error = 0.0\nsamples = 1\nvalue = -0.417", fillcolor="#efb287"] ;
504 -> 505 ;
506 [label="squared_error = 0.0\nsamples = 1\nvalue = -0.526", fillcolor="#f0b48a"] ;
504 -> 506 ;
507 [label="X[0] <= 315.0\nsquared_error = 0.017\nsamples = 6\nvalue = -0.63", fillcolor="#f0b68d"] ;
491 -> 507 ;
508 [label="X[0] <= 313.5\nsquared_error = 0.012\nsamples = 2\nvalue = -0.788", fillcolor="#f1b991"] ;
507 -> 508 ;
509 [label="squared_error = 0.0\nsamples = 1\nvalue = -0.677", fillcolor="#f0b78e"] ;
508 -> 509 ;
510 [label="squared_error = -0.0\nsamples = 1\nvalue = -0.899", fillcolor="#f1bb94"] ;
508 -> 510 ;
511 [label="X[0] <= 317.0\nsquared_error = 0.0\nsamples = 4\nvalue = -0.552", fillcolor="#f0b58a"] ;
507 -> 511 ;
512 [label="squared_error = 0.0\nsamples = 1\nvalue = -0.53", fillcolor="#f0b48a"] ;
511 -> 512 ;
513 [label="X[0] <= 318.5\nsquared_error = 0.0\nsamples = 3\nvalue = -0.559", fillcolor="#f0b58b"] ;
511 -> 513 ;
514 [label="squared_error = 0.0\nsamples = 1\nvalue = -0.582", fillcolor="#f0b58b"] ;
513 -> 514 ;
515 [label="X[0] <= 319.5\nsquared_error = 0.0\nsamples = 2\nvalue = -0.547", fillcolor="#f0b58a"] ;
513 -> 515 ;
516 [label="squared_error = 0.0\nsamples = 1\nvalue = -0.538", fillcolor="#f0b58a"] ;
515 -> 516 ;
517 [label="squared_error = 0.0\nsamples = 1\nvalue = -0.556", fillcolor="#f0b58b"] ;
515 -> 517 ;
518 [label="X[0] <= 322.5\nsquared_error = 0.0\nsamples = 3\nvalue = -0.425", fillcolor="#efb287"] ;
490 -> 518 ;
519 [label="X[0] <= 321.5\nsquared_error = 0.0\nsamples = 2\nvalue = -0.437", fillcolor="#efb387"] ;
518 -> 519 ;
520 [label="squared_error = 0.0\nsamples = 1\nvalue = -0.438", fillcolor="#efb387"] ;
519 -> 520 ;
521 [label="squared_error = 0.0\nsamples = 1\nvalue = -0.436", fillcolor="#efb387"] ;
519 -> 521 ;
522 [label="squared_error = -0.0\nsamples = 1\nvalue = -0.4", fillcolor="#efb286"] ;
518 -> 522 ;
523 [label="X[0] <= 327.0\nsquared_error = 0.031\nsamples = 7\nvalue = 0.024", fillcolor="#eeaa7a"] ;
473 -> 523 ;
524 [label="X[0] <= 325.5\nsquared_error = 0.003\nsamples = 3\nvalue = -0.165", fillcolor="#eeae7f"] ;
523 -> 524 ;
525 [label="X[0] <= 324.5\nsquared_error = 0.003\nsamples = 2\nvalue = -0.187", fillcolor="#eeae80"] ;
524 -> 525 ;
526 [label="squared_error = 0.0\nsamples = 1\nvalue = -0.135", fillcolor="#eead7e"] ;
525 -> 526 ;
527 [label="squared_error = 0.0\nsamples = 1\nvalue = -0.239", fillcolor="#efaf81"] ;
525 -> 527 ;
528 [label="squared_error = 0.0\nsamples = 1\nvalue = -0.12", fillcolor="#eead7e"] ;
524 -> 528 ;
529 [label="X[0] <= 329.0\nsquared_error = 0.005\nsamples = 4\nvalue = 0.165", fillcolor="#eda876"] ;
523 -> 529 ;
530 [label="squared_error = 0.0\nsamples = 1\nvalue = 0.285", fillcolor="#eda572"] ;
529 -> 530 ;
531 [label="X[0] <= 331.5\nsquared_error = 0.001\nsamples = 3\nvalue = 0.125", fillcolor="#eda877"] ;
529 -> 531 ;
532 [label="X[0] <= 330.5\nsquared_error = 0.0\nsamples = 2\nvalue = 0.108", fillcolor="#eda977"] ;
531 -> 532 ;
533 [label="squared_error = 0.0\nsamples = 1\nvalue = 0.107", fillcolor="#eda977"] ;
532 -> 533 ;
534 [label="squared_error = -0.0\nsamples = 1\nvalue = 0.11", fillcolor="#eda977"] ;
532 -> 534 ;
535 [label="squared_error = 0.0\nsamples = 1\nvalue = 0.158", fillcolor="#eda876"] ;
531 -> 535 ;
536 [label="X[0] <= 391.5\nsquared_error = 0.477\nsamples = 72\nvalue = 0.472", fillcolor="#eca26d"] ;
16 -> 536 ;
537 [label="X[0] <= 378.5\nsquared_error = 0.352\nsamples = 46\nvalue = 0.772", fillcolor="#eb9c64"] ;
536 -> 537 ;
538 [label="X[0] <= 347.0\nsquared_error = 0.034\nsamples = 33\nvalue = 0.451", fillcolor="#eca26d"] ;
537 -> 538 ;
539 [label="X[0] <= 341.5\nsquared_error = 0.004\nsamples = 10\nvalue = 0.246", fillcolor="#eda673"] ;
538 -> 539 ;
540 [label="X[0] <= 339.5\nsquared_error = 0.005\nsamples = 7\nvalue = 0.231", fillcolor="#eda674"] ;
539 -> 540 ;
541 [label="X[0] <= 336.5\nsquared_error = 0.004\nsamples = 5\nvalue = 0.259", fillcolor="#eda673"] ;
540 -> 541 ;
542 [label="X[0] <= 334.5\nsquared_error = 0.006\nsamples = 2\nvalue = 0.216", fillcolor="#eda774"] ;
541 -> 542 ;
543 [label="squared_error = 0.0\nsamples = 1\nvalue = 0.292", fillcolor="#eca572"] ;
542 -> 543 ;
544 [label="squared_error = -0.0\nsamples = 1\nvalue = 0.141", fillcolor="#eda876"] ;
542 -> 544 ;
545 [label="X[0] <= 338.5\nsquared_error = 0.0\nsamples = 3\nvalue = 0.288", fillcolor="#eca572"] ;
541 -> 545 ;
546 [label="X[0] <= 337.5\nsquared_error = 0.0\nsamples = 2\nvalue = 0.275", fillcolor="#eda672"] ;
545 -> 546 ;
547 [label="squared_error = 0.0\nsamples = 1\nvalue = 0.263", fillcolor="#eda673"] ;
546 -> 547 ;
548 [label="squared_error = 0.0\nsamples = 1\nvalue = 0.287", fillcolor="#eda572"] ;
546 -> 548 ;
549 [label="squared_error = -0.0\nsamples = 1\nvalue = 0.314", fillcolor="#eca571"] ;
545 -> 549 ;
550 [label="X[0] <= 340.5\nsquared_error = 0.0\nsamples = 2\nvalue = 0.158", fillcolor="#eda876"] ;
540 -> 550 ;
551 [label="squared_error = 0.0\nsamples = 1\nvalue = 0.178", fillcolor="#eda775"] ;
550 -> 551 ;
552 [label="squared_error = -0.0\nsamples = 1\nvalue = 0.138", fillcolor="#eda876"] ;
550 -> 552 ;
553 [label="X[0] <= 343.0\nsquared_error = 0.001\nsamples = 3\nvalue = 0.283", fillcolor="#eda572"] ;
539 -> 553 ;
554 [label="squared_error = 0.0\nsamples = 1\nvalue = 0.321", fillcolor="#eca571"] ;
553 -> 554 ;
555 [label="X[0] <= 345.0\nsquared_error = 0.0\nsamples = 2\nvalue = 0.265", fillcolor="#eda673"] ;
553 -> 555 ;
556 [label="squared_error = 0.0\nsamples = 1\nvalue = 0.252", fillcolor="#eda673"] ;
555 -> 556 ;
557 [label="squared_error = 0.0\nsamples = 1\nvalue = 0.277", fillcolor="#eda672"] ;
555 -> 557 ;
558 [label="X[0] <= 374.5\nsquared_error = 0.021\nsamples = 23\nvalue = 0.54", fillcolor="#eca16b"] ;
538 -> 558 ;
559 [label="X[0] <= 361.5\nsquared_error = 0.014\nsamples = 20\nvalue = 0.506", fillcolor="#eca16c"] ;
558 -> 559 ;
560 [label="X[0] <= 354.5\nsquared_error = 0.012\nsamples = 10\nvalue = 0.586", fillcolor="#eba06a"] ;
559 -> 560 ;
561 [label="X[0] <= 349.5\nsquared_error = 0.004\nsamples = 5\nvalue = 0.505", fillcolor="#eca16c"] ;
560 -> 561 ;
562 [label="X[0] <= 348.5\nsquared_error = 0.0\nsamples = 2\nvalue = 0.439", fillcolor="#eca36e"] ;
561 -> 562 ;
563 [label="squared_error = 0.0\nsamples = 1\nvalue = 0.459", fillcolor="#eca26d"] ;
562 -> 563 ;
564 [label="squared_error = 0.0\nsamples = 1\nvalue = 0.419", fillcolor="#eca36e"] ;
562 -> 564 ;
565 [label="X[0] <= 351.0\nsquared_error = 0.001\nsamples = 3\nvalue = 0.548", fillcolor="#eca16b"] ;
561 -> 565 ;
566 [label="squared_error = 0.0\nsamples = 1\nvalue = 0.521", fillcolor="#eca16b"] ;
565 -> 566 ;
567 [label="X[0] <= 353.0\nsquared_error = 0.002\nsamples = 2\nvalue = 0.562", fillcolor="#eba06a"] ;
565 -> 567 ;
568 [label="squared_error = 0.0\nsamples = 1\nvalue = 0.603", fillcolor="#eba069"] ;
567 -> 568 ;
569 [label="squared_error = -0.0\nsamples = 1\nvalue = 0.522", fillcolor="#eca16b"] ;
567 -> 569 ;
570 [label="X[0] <= 358.0\nsquared_error = 0.006\nsamples = 5\nvalue = 0.667", fillcolor="#eb9e67"] ;
560 -> 570 ;
571 [label="X[0] <= 356.5\nsquared_error = 0.0\nsamples = 3\nvalue = 0.728", fillcolor="#eb9d65"] ;
570 -> 571 ;
572 [label="X[0] <= 355.5\nsquared_error = 0.0\nsamples = 2\nvalue = 0.732", fillcolor="#eb9d65"] ;
571 -> 572 ;
573 [label="squared_error = 0.0\nsamples = 1\nvalue = 0.735", fillcolor="#eb9d65"] ;
572 -> 573 ;
574 [label="squared_error = -0.0\nsamples = 1\nvalue = 0.73", fillcolor="#eb9d65"] ;
572 -> 574 ;
575 [label="squared_error = 0.0\nsamples = 1\nvalue = 0.719", fillcolor="#eb9d66"] ;
571 -> 575 ;
576 [label="X[0] <= 359.5\nsquared_error = 0.001\nsamples = 2\nvalue = 0.575", fillcolor="#eba06a"] ;
570 -> 576 ;
577 [label="squared_error = 0.0\nsamples = 1\nvalue = 0.545", fillcolor="#eca16b"] ;
576 -> 577 ;
578 [label="squared_error = 0.0\nsamples = 1\nvalue = 0.605", fillcolor="#eba069"] ;
576 -> 578 ;
579 [label="X[0] <= 371.5\nsquared_error = 0.004\nsamples = 10\nvalue = 0.427", fillcolor="#eca36e"] ;
559 -> 579 ;
580 [label="X[0] <= 364.0\nsquared_error = 0.002\nsamples = 7\nvalue = 0.444", fillcolor="#eca26e"] ;
579 -> 580 ;
581 [label="squared_error = 0.0\nsamples = 1\nvalue = 0.405", fillcolor="#eca36f"] ;
580 -> 581 ;
582 [label="X[0] <= 365.5\nsquared_error = 0.002\nsamples = 6\nvalue = 0.45", fillcolor="#eca26d"] ;
580 -> 582 ;
583 [label="squared_error = 0.0\nsamples = 1\nvalue = 0.531", fillcolor="#eca16b"] ;
582 -> 583 ;
584 [label="X[0] <= 366.5\nsquared_error = 0.001\nsamples = 5\nvalue = 0.434", fillcolor="#eca36e"] ;
582 -> 584 ;
585 [label="squared_error = 0.0\nsamples = 1\nvalue = 0.378", fillcolor="#eca470"] ;
584 -> 585 ;
586 [label="X[0] <= 369.0\nsquared_error = 0.001\nsamples = 4\nvalue = 0.448", fillcolor="#eca26d"] ;
584 -> 586 ;
587 [label="X[0] <= 367.5\nsquared_error = 0.0\nsamples = 2\nvalue = 0.463", fillcolor="#eca26d"] ;
586 -> 587 ;
588 [label="squared_error = 0.0\nsamples = 1\nvalue = 0.468", fillcolor="#eca26d"] ;
587 -> 588 ;
589 [label="squared_error = 0.0\nsamples = 1\nvalue = 0.458", fillcolor="#eca26d"] ;
587 -> 589 ;
590 [label="X[0] <= 370.5\nsquared_error = 0.001\nsamples = 2\nvalue = 0.434", fillcolor="#eca36e"] ;
586 -> 590 ;
591 [label="squared_error = 0.0\nsamples = 1\nvalue = 0.408", fillcolor="#eca36f"] ;
590 -> 591 ;
592 [label="squared_error = -0.0\nsamples = 1\nvalue = 0.459", fillcolor="#eca26d"] ;
590 -> 592 ;
593 [label="X[0] <= 373.5\nsquared_error = 0.005\nsamples = 3\nvalue = 0.388", fillcolor="#eca46f"] ;
579 -> 593 ;
594 [label="X[0] <= 372.5\nsquared_error = 0.003\nsamples = 2\nvalue = 0.351", fillcolor="#eca470"] ;
593 -> 594 ;
595 [label="squared_error = 0.0\nsamples = 1\nvalue = 0.404", fillcolor="#eca36f"] ;
594 -> 595 ;
596 [label="squared_error = 0.0\nsamples = 1\nvalue = 0.298", fillcolor="#eca572"] ;
594 -> 596 ;
597 [label="squared_error = 0.0\nsamples = 1\nvalue = 0.461", fillcolor="#eca26d"] ;
593 -> 597 ;
598 [label="X[0] <= 377.5\nsquared_error = 0.012\nsamples = 3\nvalue = 0.761", fillcolor="#eb9d64"] ;
558 -> 598 ;
599 [label="X[0] <= 376.0\nsquared_error = 0.0\nsamples = 2\nvalue = 0.683", fillcolor="#eb9e67"] ;
598 -> 599 ;
600 [label="squared_error = 0.0\nsamples = 1\nvalue = 0.665", fillcolor="#eb9e67"] ;
599 -> 600 ;
601 [label="squared_error = -0.0\nsamples = 1\nvalue = 0.701", fillcolor="#eb9e66"] ;
599 -> 601 ;
602 [label="squared_error = 0.0\nsamples = 1\nvalue = 0.917", fillcolor="#ea9a60"] ;
598 -> 602 ;
603 [label="X[0] <= 388.5\nsquared_error = 0.231\nsamples = 13\nvalue = 1.588", fillcolor="#e88d4d"] ;
537 -> 603 ;
604 [label="X[0] <= 381.5\nsquared_error = 0.091\nsamples = 10\nvalue = 1.795", fillcolor="#e78a47"] ;
603 -> 604 ;
605 [label="X[0] <= 379.5\nsquared_error = 0.026\nsamples = 3\nvalue = 1.465", fillcolor="#e89050"] ;
604 -> 605 ;
606 [label="squared_error = 0.0\nsamples = 1\nvalue = 1.248", fillcolor="#e99456"] ;
605 -> 606 ;
607 [label="X[0] <= 380.5\nsquared_error = 0.005\nsamples = 2\nvalue = 1.573", fillcolor="#e88e4d"] ;
605 -> 607 ;
608 [label="squared_error = 0.0\nsamples = 1\nvalue = 1.506", fillcolor="#e88f4f"] ;
607 -> 608 ;
609 [label="squared_error = 0.0\nsamples = 1\nvalue = 1.64", fillcolor="#e78c4b"] ;
607 -> 609 ;
610 [label="X[0] <= 386.5\nsquared_error = 0.051\nsamples = 7\nvalue = 1.937", fillcolor="#e68742"] ;
604 -> 610 ;
611 [label="X[0] <= 382.5\nsquared_error = 0.029\nsamples = 5\nvalue = 2.041", fillcolor="#e6853f"] ;
610 -> 611 ;
612 [label="squared_error = 0.0\nsamples = 1\nvalue = 1.811", fillcolor="#e78946"] ;
611 -> 612 ;
613 [label="X[0] <= 384.5\nsquared_error = 0.02\nsamples = 4\nvalue = 2.098", fillcolor="#e6843e"] ;
611 -> 613 ;
614 [label="X[0] <= 383.5\nsquared_error = 0.002\nsamples = 2\nvalue = 2.224", fillcolor="#e5823a"] ;
613 -> 614 ;
615 [label="squared_error = 0.0\nsamples = 1\nvalue = 2.185", fillcolor="#e5823b"] ;
614 -> 615 ;
616 [label="squared_error = 0.0\nsamples = 1\nvalue = 2.263", fillcolor="#e58139"] ;
614 -> 616 ;
617 [label="X[0] <= 385.5\nsquared_error = 0.007\nsamples = 2\nvalue = 1.972", fillcolor="#e68641"] ;
613 -> 617 ;
618 [label="squared_error = 0.0\nsamples = 1\nvalue = 2.053", fillcolor="#e6853f"] ;
617 -> 618 ;
619 [label="squared_error = 0.0\nsamples = 1\nvalue = 1.89", fillcolor="#e68844"] ;
617 -> 619 ;
620 [label="X[0] <= 387.5\nsquared_error = 0.013\nsamples = 2\nvalue = 1.679", fillcolor="#e78c4a"] ;
610 -> 620 ;
621 [label="squared_error = 0.0\nsamples = 1\nvalue = 1.793", fillcolor="#e78a47"] ;
620 -> 621 ;
622 [label="squared_error = 0.0\nsamples = 1\nvalue = 1.565", fillcolor="#e88e4d"] ;
620 -> 622 ;
623 [label="X[0] <= 390.5\nsquared_error = 0.078\nsamples = 3\nvalue = 0.896", fillcolor="#ea9a61"] ;
603 -> 623 ;
624 [label="X[0] <= 389.5\nsquared_error = 0.028\nsamples = 2\nvalue = 1.067", fillcolor="#ea975c"] ;
623 -> 624 ;
625 [label="squared_error = 0.0\nsamples = 1\nvalue = 1.235", fillcolor="#e99457"] ;
624 -> 625 ;
626 [label="squared_error = 0.0\nsamples = 1\nvalue = 0.9", fillcolor="#ea9a60"] ;
624 -> 626 ;
627 [label="squared_error = 0.0\nsamples = 1\nvalue = 0.552", fillcolor="#eba06a"] ;
623 -> 627 ;
628 [label="X[0] <= 409.5\nsquared_error = 0.257\nsamples = 26\nvalue = -0.059", fillcolor="#eeac7c"] ;
536 -> 628 ;
629 [label="X[0] <= 395.5\nsquared_error = 0.036\nsamples = 17\nvalue = -0.282", fillcolor="#efb083"] ;
628 -> 629 ;
630 [label="X[0] <= 392.5\nsquared_error = 0.029\nsamples = 4\nvalue = -0.033", fillcolor="#eeab7b"] ;
629 -> 630 ;
631 [label="squared_error = 0.0\nsamples = 1\nvalue = 0.258", fillcolor="#eda673"] ;
630 -> 631 ;
632 [label="X[0] <= 394.5\nsquared_error = 0.001\nsamples = 3\nvalue = -0.13", fillcolor="#eead7e"] ;
630 -> 632 ;
633 [label="X[0] <= 393.5\nsquared_error = 0.0\nsamples = 2\nvalue = -0.111", fillcolor="#eead7e"] ;
632 -> 633 ;
634 [label="squared_error = 0.0\nsamples = 1\nvalue = -0.129", fillcolor="#eead7e"] ;
633 -> 634 ;
635 [label="squared_error = -0.0\nsamples = 1\nvalue = -0.093", fillcolor="#eeac7d"] ;
633 -> 635 ;
636 [label="squared_error = -0.0\nsamples = 1\nvalue = -0.169", fillcolor="#eeae7f"] ;
632 -> 636 ;
637 [label="X[0] <= 406.0\nsquared_error = 0.014\nsamples = 13\nvalue = -0.358", fillcolor="#efb185"] ;
629 -> 637 ;
638 [label="X[0] <= 404.5\nsquared_error = 0.007\nsamples = 10\nvalue = -0.405", fillcolor="#efb286"] ;
637 -> 638 ;
639 [label="X[0] <= 396.5\nsquared_error = 0.005\nsamples = 9\nvalue = -0.389", fillcolor="#efb286"] ;
638 -> 639 ;
640 [label="squared_error = 0.0\nsamples = 1\nvalue = -0.496", fillcolor="#efb489"] ;
639 -> 640 ;
641 [label="X[0] <= 403.5\nsquared_error = 0.004\nsamples = 8\nvalue = -0.376", fillcolor="#efb285"] ;
639 -> 641 ;
642 [label="X[0] <= 402.5\nsquared_error = 0.004\nsamples = 7\nvalue = -0.367", fillcolor="#efb185"] ;
641 -> 642 ;
643 [label="X[0] <= 400.5\nsquared_error = 0.004\nsamples = 6\nvalue = -0.376", fillcolor="#efb285"] ;
642 -> 643 ;
644 [label="X[0] <= 399.5\nsquared_error = 0.005\nsamples = 4\nvalue = -0.36", fillcolor="#efb185"] ;
643 -> 644 ;
645 [label="X[0] <= 398.5\nsquared_error = 0.002\nsamples = 3\nvalue = -0.39", fillcolor="#efb286"] ;
644 -> 645 ;
646 [label="X[0] <= 397.5\nsquared_error = 0.001\nsamples = 2\nvalue = -0.362", fillcolor="#efb185"] ;
645 -> 646 ;
647 [label="squared_error = 0.0\nsamples = 1\nvalue = -0.395", fillcolor="#efb286"] ;
646 -> 647 ;
648 [label="squared_error = -0.0\nsamples = 1\nvalue = -0.328", fillcolor="#efb184"] ;
646 -> 648 ;
649 [label="squared_error = 0.0\nsamples = 1\nvalue = -0.448", fillcolor="#efb387"] ;
645 -> 649 ;
650 [label="squared_error = 0.0\nsamples = 1\nvalue = -0.268", fillcolor="#efb082"] ;
644 -> 650 ;
651 [label="X[0] <= 401.5\nsquared_error = 0.002\nsamples = 2\nvalue = -0.407", fillcolor="#efb286"] ;
643 -> 651 ;
652 [label="squared_error = 0.0\nsamples = 1\nvalue = -0.456", fillcolor="#efb388"] ;
651 -> 652 ;
653 [label="squared_error = -0.0\nsamples = 1\nvalue = -0.358", fillcolor="#efb185"] ;
651 -> 653 ;
654 [label="squared_error = 0.0\nsamples = 1\nvalue = -0.318", fillcolor="#efb084"] ;
642 -> 654 ;
655 [label="squared_error = 0.0\nsamples = 1\nvalue = -0.434", fillcolor="#efb387"] ;
641 -> 655 ;
656 [label="squared_error = -0.0\nsamples = 1\nvalue = -0.549", fillcolor="#f0b58a"] ;
638 -> 656 ;
657 [label="X[0] <= 408.5\nsquared_error = 0.004\nsamples = 3\nvalue = -0.202", fillcolor="#eeae80"] ;
637 -> 657 ;
658 [label="X[0] <= 407.5\nsquared_error = 0.001\nsamples = 2\nvalue = -0.244", fillcolor="#efaf82"] ;
657 -> 658 ;
659 [label="squared_error = 0.0\nsamples = 1\nvalue = -0.268", fillcolor="#efb082"] ;
658 -> 659 ;
660 [label="squared_error = 0.0\nsamples = 1\nvalue = -0.22", fillcolor="#eeaf81"] ;
658 -> 660 ;
661 [label="squared_error = -0.0\nsamples = 1\nvalue = -0.117", fillcolor="#eead7e"] ;
657 -> 661 ;
662 [label="X[0] <= 413.5\nsquared_error = 0.402\nsamples = 9\nvalue = 0.363", fillcolor="#eca470"] ;
628 -> 662 ;
663 [label="X[0] <= 412.5\nsquared_error = 0.086\nsamples = 4\nvalue = 0.829", fillcolor="#ea9b62"] ;
662 -> 663 ;
664 [label="X[0] <= 410.5\nsquared_error = 0.076\nsamples = 3\nvalue = 0.928", fillcolor="#ea9a60"] ;
663 -> 664 ;
665 [label="squared_error = 0.0\nsamples = 1\nvalue = 0.614", fillcolor="#eb9f69"] ;
664 -> 665 ;
666 [label="X[0] <= 411.5\nsquared_error = 0.04\nsamples = 2\nvalue = 1.085", fillcolor="#e9975b"] ;
664 -> 666 ;
667 [label="squared_error = 0.0\nsamples = 1\nvalue = 1.285", fillcolor="#e99355"] ;
666 -> 667 ;
668 [label="squared_error = -0.0\nsamples = 1\nvalue = 0.886", fillcolor="#ea9a61"] ;
666 -> 668 ;
669 [label="squared_error = 0.0\nsamples = 1\nvalue = 0.531", fillcolor="#eca16b"] ;
663 -> 669 ;
670 [label="X[0] <= 418.0\nsquared_error = 0.341\nsamples = 5\nvalue = -0.01", fillcolor="#eeab7b"] ;
662 -> 670 ;
671 [label="X[0] <= 415.5\nsquared_error = 0.165\nsamples = 4\nvalue = -0.239", fillcolor="#efaf81"] ;
670 -> 671 ;
672 [label="X[0] <= 414.5\nsquared_error = 0.028\nsamples = 2\nvalue = 0.145", fillcolor="#eda876"] ;
671 -> 672 ;
673 [label="squared_error = 0.0\nsamples = 1\nvalue = 0.311", fillcolor="#eca571"] ;
672 -> 673 ;
674 [label="squared_error = -0.0\nsamples = 1\nvalue = -0.022", fillcolor="#eeab7b"] ;
672 -> 674 ;
675 [label="X[0] <= 416.5\nsquared_error = 0.008\nsamples = 2\nvalue = -0.623", fillcolor="#f0b68c"] ;
671 -> 675 ;
676 [label="squared_error = 0.0\nsamples = 1\nvalue = -0.714", fillcolor="#f0b88f"] ;
675 -> 676 ;
677 [label="squared_error = -0.0\nsamples = 1\nvalue = -0.532", fillcolor="#f0b48a"] ;
675 -> 677 ;
678 [label="squared_error = 0.0\nsamples = 1\nvalue = 0.904", fillcolor="#ea9a60"] ;
670 -> 678 ;
679 [label="X[0] <= 428.5\nsquared_error = 1.244\nsamples = 43\nvalue = -0.695", fillcolor="#f0b78f"] ;
15 -> 679 ;
680 [label="X[0] <= 423.0\nsquared_error = 1.911\nsamples = 7\nvalue = -2.781", fillcolor="#f8decb"] ;
679 -> 680 ;
681 [label="X[0] <= 421.0\nsquared_error = 0.557\nsamples = 2\nvalue = -1.168", fillcolor="#f2c09c"] ;
680 -> 681 ;
682 [label="squared_error = 0.0\nsamples = 1\nvalue = -0.422", fillcolor="#efb287"] ;
681 -> 682 ;
683 [label="squared_error = 0.0\nsamples = 1\nvalue = -1.914", fillcolor="#f5ceb2"] ;
681 -> 683 ;
684 [label="X[0] <= 426.5\nsquared_error = 0.996\nsamples = 5\nvalue = -3.426", fillcolor="#fbeade"] ;
680 -> 684 ;
685 [label="X[0] <= 425.5\nsquared_error = 0.038\nsamples = 3\nvalue = -4.156", fillcolor="#fdf7f3"] ;
684 -> 685 ;
686 [label="X[0] <= 424.5\nsquared_error = 0.001\nsamples = 2\nvalue = -4.293", fillcolor="#fefaf7"] ;
685 -> 686 ;
687 [label="squared_error = 0.0\nsamples = 1\nvalue = -4.319", fillcolor="#fefaf7"] ;
686 -> 687 ;
688 [label="squared_error = -0.0\nsamples = 1\nvalue = -4.268", fillcolor="#fef9f6"] ;
686 -> 688 ;
689 [label="squared_error = -0.0\nsamples = 1\nvalue = -3.881", fillcolor="#fcf2eb"] ;
685 -> 689 ;
690 [label="X[0] <= 427.5\nsquared_error = 0.437\nsamples = 2\nvalue = -2.332", fillcolor="#f6d6be"] ;
684 -> 690 ;
691 [label="squared_error = 0.0\nsamples = 1\nvalue = -2.993", fillcolor="#f9e2d1"] ;
690 -> 691 ;
692 [label="squared_error = 0.0\nsamples = 1\nvalue = -1.671", fillcolor="#f4c9ab"] ;
690 -> 692 ;
693 [label="X[0] <= 466.5\nsquared_error = 0.103\nsamples = 36\nvalue = -0.289", fillcolor="#efb083"] ;
679 -> 693 ;
694 [label="X[0] <= 430.0\nsquared_error = 0.071\nsamples = 25\nvalue = -0.441", fillcolor="#efb387"] ;
693 -> 694 ;
695 [label="squared_error = 0.0\nsamples = 1\nvalue = -1.334", fillcolor="#f3c3a1"] ;
694 -> 695 ;
696 [label="X[0] <= 448.5\nsquared_error = 0.04\nsamples = 24\nvalue = -0.404", fillcolor="#efb286"] ;
694 -> 696 ;
697 [label="X[0] <= 440.5\nsquared_error = 0.005\nsamples = 12\nvalue = -0.231", fillcolor="#eeaf81"] ;
696 -> 697 ;
698 [label="X[0] <= 433.5\nsquared_error = 0.002\nsamples = 7\nvalue = -0.183", fillcolor="#eeae80"] ;
697 -> 698 ;
699 [label="X[0] <= 432.0\nsquared_error = 0.002\nsamples = 2\nvalue = -0.229", fillcolor="#eeaf81"] ;
698 -> 699 ;
700 [label="squared_error = 0.0\nsamples = 1\nvalue = -0.183", fillcolor="#eeae80"] ;
699 -> 700 ;
701 [label="squared_error = 0.0\nsamples = 1\nvalue = -0.274", fillcolor="#efb082"] ;
699 -> 701 ;
702 [label="X[0] <= 435.0\nsquared_error = 0.001\nsamples = 5\nvalue = -0.165", fillcolor="#eeae7f"] ;
698 -> 702 ;
703 [label="squared_error = 0.0\nsamples = 1\nvalue = -0.128", fillcolor="#eead7e"] ;
702 -> 703 ;
704 [label="X[0] <= 436.5\nsquared_error = 0.001\nsamples = 4\nvalue = -0.174", fillcolor="#eeae7f"] ;
702 -> 704 ;
705 [label="squared_error = 0.0\nsamples = 1\nvalue = -0.214", fillcolor="#eeaf81"] ;
704 -> 705 ;
706 [label="X[0] <= 437.5\nsquared_error = 0.0\nsamples = 3\nvalue = -0.161", fillcolor="#eeae7f"] ;
704 -> 706 ;
707 [label="squared_error = 0.0\nsamples = 1\nvalue = -0.176", fillcolor="#eeae80"] ;
706 -> 707 ;
708 [label="X[0] <= 438.5\nsquared_error = 0.0\nsamples = 2\nvalue = -0.153", fillcolor="#eead7f"] ;
706 -> 708 ;
709 [label="squared_error = 0.0\nsamples = 1\nvalue = -0.157", fillcolor="#eeae7f"] ;
708 -> 709 ;
710 [label="squared_error = -0.0\nsamples = 1\nvalue = -0.149", fillcolor="#eead7f"] ;
708 -> 710 ;
711 [label="X[0] <= 445.5\nsquared_error = 0.002\nsamples = 5\nvalue = -0.298", fillcolor="#efb083"] ;
697 -> 711 ;
712 [label="X[0] <= 442.5\nsquared_error = 0.0\nsamples = 3\nvalue = -0.266", fillcolor="#efb082"] ;
711 -> 712 ;
713 [label="squared_error = 0.0\nsamples = 1\nvalue = -0.246", fillcolor="#efaf82"] ;
712 -> 713 ;
714 [label="X[0] <= 444.0\nsquared_error = 0.0\nsamples = 2\nvalue = -0.276", fillcolor="#efb082"] ;
712 -> 714 ;
715 [label="squared_error = 0.0\nsamples = 1\nvalue = -0.274", fillcolor="#efb082"] ;
714 -> 715 ;
716 [label="squared_error = 0.0\nsamples = 1\nvalue = -0.277", fillcolor="#efb082"] ;
714 -> 716 ;
717 [label="X[0] <= 446.5\nsquared_error = 0.001\nsamples = 2\nvalue = -0.347", fillcolor="#efb184"] ;
711 -> 717 ;
718 [label="squared_error = 0.0\nsamples = 1\nvalue = -0.383", fillcolor="#efb286"] ;
717 -> 718 ;
719 [label="squared_error = 0.0\nsamples = 1\nvalue = -0.312", fillcolor="#efb083"] ;
717 -> 719 ;
720 [label="X[0] <= 463.0\nsquared_error = 0.015\nsamples = 12\nvalue = -0.576", fillcolor="#f0b58b"] ;
696 -> 720 ;
721 [label="X[0] <= 452.5\nsquared_error = 0.004\nsamples = 10\nvalue = -0.622", fillcolor="#f0b68c"] ;
720 -> 721 ;
722 [label="X[0] <= 451.0\nsquared_error = 0.0\nsamples = 2\nvalue = -0.555", fillcolor="#f0b58a"] ;
721 -> 722 ;
723 [label="squared_error = 0.0\nsamples = 1\nvalue = -0.571", fillcolor="#f0b58b"] ;
722 -> 723 ;
724 [label="squared_error = -0.0\nsamples = 1\nvalue = -0.538", fillcolor="#f0b58a"] ;
722 -> 724 ;
725 [label="X[0] <= 456.5\nsquared_error = 0.004\nsamples = 8\nvalue = -0.639", fillcolor="#f0b68d"] ;
721 -> 725 ;
726 [label="X[0] <= 454.0\nsquared_error = 0.003\nsamples = 3\nvalue = -0.679", fillcolor="#f0b78e"] ;
725 -> 726 ;
727 [label="squared_error = 0.0\nsamples = 1\nvalue = -0.607", fillcolor="#f0b68c"] ;
726 -> 727 ;
728 [label="X[0] <= 455.5\nsquared_error = 0.001\nsamples = 2\nvalue = -0.715", fillcolor="#f0b88f"] ;
726 -> 728 ;
729 [label="squared_error = 0.0\nsamples = 1\nvalue = -0.683", fillcolor="#f0b78e"] ;
728 -> 729 ;
730 [label="squared_error = 0.0\nsamples = 1\nvalue = -0.747", fillcolor="#f0b890"] ;
728 -> 730 ;
731 [label="X[0] <= 461.5\nsquared_error = 0.003\nsamples = 5\nvalue = -0.614", fillcolor="#f0b68c"] ;
725 -> 731 ;
732 [label="X[0] <= 459.5\nsquared_error = 0.003\nsamples = 4\nvalue = -0.626", fillcolor="#f0b68d"] ;
731 -> 732 ;
733 [label="X[0] <= 458.0\nsquared_error = 0.002\nsamples = 2\nvalue = -0.588", fillcolor="#f0b58b"] ;
732 -> 733 ;
734 [label="squared_error = 0.0\nsamples = 1\nvalue = -0.636", fillcolor="#f0b68d"] ;
733 -> 734 ;
735 [label="squared_error = 0.0\nsamples = 1\nvalue = -0.54", fillcolor="#f0b58a"] ;
733 -> 735 ;
736 [label="X[0] <= 460.5\nsquared_error = 0.0\nsamples = 2\nvalue = -0.664", fillcolor="#f0b78e"] ;
732 -> 736 ;
737 [label="squared_error = 0.0\nsamples = 1\nvalue = -0.675", fillcolor="#f0b78e"] ;
736 -> 737 ;
738 [label="squared_error = 0.0\nsamples = 1\nvalue = -0.654", fillcolor="#f0b78d"] ;
736 -> 738 ;
739 [label="squared_error = -0.0\nsamples = 1\nvalue = -0.567", fillcolor="#f0b58b"] ;
731 -> 739 ;
740 [label="X[0] <= 465.0\nsquared_error = 0.004\nsamples = 2\nvalue = -0.35", fillcolor="#efb185"] ;
720 -> 740 ;
741 [label="squared_error = 0.0\nsamples = 1\nvalue = -0.415", fillcolor="#efb286"] ;
740 -> 741 ;
742 [label="squared_error = -0.0\nsamples = 1\nvalue = -0.284", fillcolor="#efb083"] ;
740 -> 742 ;
743 [label="X[0] <= 469.5\nsquared_error = 0.005\nsamples = 11\nvalue = 0.055", fillcolor="#edaa79"] ;
693 -> 743 ;
744 [label="X[0] <= 468.0\nsquared_error = 0.0\nsamples = 2\nvalue = -0.082", fillcolor="#eeac7d"] ;
743 -> 744 ;
745 [label="squared_error = 0.0\nsamples = 1\nvalue = -0.073", fillcolor="#eeac7d"] ;
744 -> 745 ;
746 [label="squared_error = 0.0\nsamples = 1\nvalue = -0.092", fillcolor="#eeac7d"] ;
744 -> 746 ;
747 [label="X[0] <= 474.5\nsquared_error = 0.001\nsamples = 9\nvalue = 0.086", fillcolor="#eda978"] ;
743 -> 747 ;
748 [label="X[0] <= 471.5\nsquared_error = 0.0\nsamples = 5\nvalue = 0.061", fillcolor="#edaa79"] ;
747 -> 748 ;
749 [label="X[0] <= 470.5\nsquared_error = 0.0\nsamples = 2\nvalue = 0.074", fillcolor="#eda978"] ;
748 -> 749 ;
750 [label="squared_error = 0.0\nsamples = 1\nvalue = 0.067", fillcolor="#eda978"] ;
749 -> 750 ;
751 [label="squared_error = 0.0\nsamples = 1\nvalue = 0.081", fillcolor="#eda978"] ;
749 -> 751 ;
752 [label="X[0] <= 473.5\nsquared_error = 0.0\nsamples = 3\nvalue = 0.052", fillcolor="#edaa79"] ;
748 -> 752 ;
753 [label="X[0] <= 472.5\nsquared_error = 0.0\nsamples = 2\nvalue = 0.04", fillcolor="#edaa79"] ;
752 -> 753 ;
754 [label="squared_error = 0.0\nsamples = 1\nvalue = 0.056", fillcolor="#edaa79"] ;
753 -> 754 ;
755 [label="squared_error = -0.0\nsamples = 1\nvalue = 0.025", fillcolor="#edaa7a"] ;
753 -> 755 ;
756 [label="squared_error = -0.0\nsamples = 1\nvalue = 0.074", fillcolor="#eda978"] ;
752 -> 756 ;
757 [label="X[0] <= 475.5\nsquared_error = 0.001\nsamples = 4\nvalue = 0.117", fillcolor="#eda877"] ;
747 -> 757 ;
758 [label="squared_error = 0.0\nsamples = 1\nvalue = 0.153", fillcolor="#eda876"] ;
757 -> 758 ;
759 [label="X[0] <= 476.5\nsquared_error = 0.0\nsamples = 3\nvalue = 0.105", fillcolor="#eda977"] ;
757 -> 759 ;
760 [label="squared_error = 0.0\nsamples = 1\nvalue = 0.091", fillcolor="#eda978"] ;
759 -> 760 ;
761 [label="X[0] <= 478.0\nsquared_error = 0.0\nsamples = 2\nvalue = 0.112", fillcolor="#eda977"] ;
759 -> 761 ;
762 [label="squared_error = 0.0\nsamples = 1\nvalue = 0.11", fillcolor="#eda977"] ;
761 -> 762 ;
763 [label="squared_error = 0.0\nsamples = 1\nvalue = 0.114", fillcolor="#eda977"] ;
761 -> 763 ;
764 [label="X[0] <= 531.5\nsquared_error = 0.381\nsamples = 66\nvalue = 0.509", fillcolor="#eca16c"] ;
14 -> 764 ;
765 [label="X[0] <= 517.5\nsquared_error = 0.255\nsamples = 44\nvalue = 0.75", fillcolor="#eb9d65"] ;
764 -> 765 ;
766 [label="X[0] <= 489.5\nsquared_error = 0.019\nsamples = 32\nvalue = 0.483", fillcolor="#eca26c"] ;
765 -> 766 ;
767 [label="X[0] <= 484.5\nsquared_error = 0.003\nsamples = 8\nvalue = 0.312", fillcolor="#eca571"] ;
766 -> 767 ;
768 [label="X[0] <= 481.5\nsquared_error = 0.0\nsamples = 3\nvalue = 0.255", fillcolor="#eda673"] ;
767 -> 768 ;
769 [label="squared_error = 0.0\nsamples = 1\nvalue = 0.271", fillcolor="#eda673"] ;
768 -> 769 ;
770 [label="X[0] <= 483.0\nsquared_error = 0.0\nsamples = 2\nvalue = 0.247", fillcolor="#eda673"] ;
768 -> 770 ;
771 [label="squared_error = 0.0\nsamples = 1\nvalue = 0.25", fillcolor="#eda673"] ;
770 -> 771 ;
772 [label="squared_error = 0.0\nsamples = 1\nvalue = 0.244", fillcolor="#eda673"] ;
770 -> 772 ;
773 [label="X[0] <= 488.5\nsquared_error = 0.001\nsamples = 5\nvalue = 0.346", fillcolor="#eca470"] ;
767 -> 773 ;
774 [label="X[0] <= 485.5\nsquared_error = 0.001\nsamples = 4\nvalue = 0.335", fillcolor="#eca471"] ;
773 -> 774 ;
775 [label="squared_error = 0.0\nsamples = 1\nvalue = 0.387", fillcolor="#eca46f"] ;
774 -> 775 ;
776 [label="X[0] <= 487.5\nsquared_error = 0.0\nsamples = 3\nvalue = 0.318", fillcolor="#eca571"] ;
774 -> 776 ;
777 [label="X[0] <= 486.5\nsquared_error = 0.0\nsamples = 2\nvalue = 0.305", fillcolor="#eca572"] ;
776 -> 777 ;
778 [label="squared_error = 0.0\nsamples = 1\nvalue = 0.3", fillcolor="#eca572"] ;
777 -> 778 ;
779 [label="squared_error = 0.0\nsamples = 1\nvalue = 0.31", fillcolor="#eca571"] ;
777 -> 779 ;
780 [label="squared_error = -0.0\nsamples = 1\nvalue = 0.345", fillcolor="#eca470"] ;
776 -> 780 ;
781 [label="squared_error = 0.0\nsamples = 1\nvalue = 0.39", fillcolor="#eca36f"] ;
773 -> 781 ;
782 [label="X[0] <= 516.5\nsquared_error = 0.011\nsamples = 24\nvalue = 0.54", fillcolor="#eca16b"] ;
766 -> 782 ;
783 [label="X[0] <= 507.5\nsquared_error = 0.007\nsamples = 23\nvalue = 0.526", fillcolor="#eca16b"] ;
782 -> 783 ;
784 [label="X[0] <= 491.5\nsquared_error = 0.004\nsamples = 16\nvalue = 0.552", fillcolor="#eba06a"] ;
783 -> 784 ;
785 [label="X[0] <= 490.5\nsquared_error = 0.0\nsamples = 2\nvalue = 0.438", fillcolor="#eca36e"] ;
784 -> 785 ;
786 [label="squared_error = 0.0\nsamples = 1\nvalue = 0.443", fillcolor="#eca26e"] ;
785 -> 786 ;
787 [label="squared_error = 0.0\nsamples = 1\nvalue = 0.433", fillcolor="#eca36e"] ;
785 -> 787 ;
788 [label="X[0] <= 503.5\nsquared_error = 0.003\nsamples = 14\nvalue = 0.569", fillcolor="#eba06a"] ;
784 -> 788 ;
789 [label="X[0] <= 496.5\nsquared_error = 0.003\nsamples = 10\nvalue = 0.581", fillcolor="#eba06a"] ;
788 -> 789 ;
790 [label="X[0] <= 494.5\nsquared_error = 0.0\nsamples = 3\nvalue = 0.541", fillcolor="#eca16b"] ;
789 -> 790 ;
791 [label="X[0] <= 492.5\nsquared_error = 0.0\nsamples = 2\nvalue = 0.537", fillcolor="#eca16b"] ;
790 -> 791 ;
792 [label="squared_error = 0.0\nsamples = 1\nvalue = 0.549", fillcolor="#eca16b"] ;
791 -> 792 ;
793 [label="squared_error = 0.0\nsamples = 1\nvalue = 0.525", fillcolor="#eca16b"] ;
791 -> 793 ;
794 [label="squared_error = 0.0\nsamples = 1\nvalue = 0.549", fillcolor="#eca16b"] ;
790 -> 794 ;
795 [label="X[0] <= 498.5\nsquared_error = 0.003\nsamples = 7\nvalue = 0.598", fillcolor="#eba069"] ;
789 -> 795 ;
796 [label="X[0] <= 497.5\nsquared_error = 0.0\nsamples = 2\nvalue = 0.65", fillcolor="#eb9f68"] ;
795 -> 796 ;
797 [label="squared_error = 0.0\nsamples = 1\nvalue = 0.669", fillcolor="#eb9e67"] ;
796 -> 797 ;
798 [label="squared_error = 0.0\nsamples = 1\nvalue = 0.63", fillcolor="#eb9f68"] ;
796 -> 798 ;
799 [label="X[0] <= 501.5\nsquared_error = 0.003\nsamples = 5\nvalue = 0.577", fillcolor="#eba06a"] ;
795 -> 799 ;
800 [label="X[0] <= 500.5\nsquared_error = 0.002\nsamples = 3\nvalue = 0.546", fillcolor="#eca16b"] ;
799 -> 800 ;
801 [label="X[0] <= 499.5\nsquared_error = 0.001\nsamples = 2\nvalue = 0.569", fillcolor="#eba06a"] ;
800 -> 801 ;
802 [label="squared_error = 0.0\nsamples = 1\nvalue = 0.54", fillcolor="#eca16b"] ;
801 -> 802 ;
803 [label="squared_error = 0.0\nsamples = 1\nvalue = 0.599", fillcolor="#eba069"] ;
801 -> 803 ;
804 [label="squared_error = 0.0\nsamples = 1\nvalue = 0.498", fillcolor="#eca16c"] ;
800 -> 804 ;
805 [label="X[0] <= 502.5\nsquared_error = 0.0\nsamples = 2\nvalue = 0.625", fillcolor="#eb9f68"] ;
799 -> 805 ;
806 [label="squared_error = 0.0\nsamples = 1\nvalue = 0.638", fillcolor="#eb9f68"] ;
805 -> 806 ;
807 [label="squared_error = 0.0\nsamples = 1\nvalue = 0.612", fillcolor="#eb9f69"] ;
805 -> 807 ;
808 [label="X[0] <= 504.5\nsquared_error = 0.001\nsamples = 4\nvalue = 0.539", fillcolor="#eca16b"] ;
788 -> 808 ;
809 [label="squared_error = 0.0\nsamples = 1\nvalue = 0.492", fillcolor="#eca26c"] ;
808 -> 809 ;
810 [label="X[0] <= 505.5\nsquared_error = 0.001\nsamples = 3\nvalue = 0.554", fillcolor="#eba06a"] ;
808 -> 810 ;
811 [label="squared_error = 0.0\nsamples = 1\nvalue = 0.574", fillcolor="#eba06a"] ;
810 -> 811 ;
812 [label="X[0] <= 506.5\nsquared_error = 0.001\nsamples = 2\nvalue = 0.544", fillcolor="#eca16b"] ;
810 -> 812 ;
813 [label="squared_error = 0.0\nsamples = 1\nvalue = 0.516", fillcolor="#eca16c"] ;
812 -> 813 ;
814 [label="squared_error = 0.0\nsamples = 1\nvalue = 0.573", fillcolor="#eba06a"] ;
812 -> 814 ;
815 [label="X[0] <= 515.0\nsquared_error = 0.008\nsamples = 7\nvalue = 0.464", fillcolor="#eca26d"] ;
783 -> 815 ;
816 [label="X[0] <= 508.5\nsquared_error = 0.002\nsamples = 6\nvalue = 0.432", fillcolor="#eca36e"] ;
815 -> 816 ;
817 [label="squared_error = 0.0\nsamples = 1\nvalue = 0.485", fillcolor="#eca26c"] ;
816 -> 817 ;
818 [label="X[0] <= 513.0\nsquared_error = 0.002\nsamples = 5\nvalue = 0.421", fillcolor="#eca36e"] ;
816 -> 818 ;
819 [label="X[0] <= 511.5\nsquared_error = 0.001\nsamples = 4\nvalue = 0.406", fillcolor="#eca36f"] ;
818 -> 819 ;
820 [label="X[0] <= 509.5\nsquared_error = 0.001\nsamples = 3\nvalue = 0.417", fillcolor="#eca36e"] ;
819 -> 820 ;
821 [label="squared_error = 0.0\nsamples = 1\nvalue = 0.374", fillcolor="#eca470"] ;
820 -> 821 ;
822 [label="X[0] <= 510.5\nsquared_error = 0.001\nsamples = 2\nvalue = 0.438", fillcolor="#eca36e"] ;
820 -> 822 ;
823 [label="squared_error = 0.0\nsamples = 1\nvalue = 0.462", fillcolor="#eca26d"] ;
822 -> 823 ;
824 [label="squared_error = 0.0\nsamples = 1\nvalue = 0.415", fillcolor="#eca36e"] ;
822 -> 824 ;
825 [label="squared_error = -0.0\nsamples = 1\nvalue = 0.372", fillcolor="#eca470"] ;
819 -> 825 ;
826 [label="squared_error = -0.0\nsamples = 1\nvalue = 0.484", fillcolor="#eca26c"] ;
818 -> 826 ;
827 [label="squared_error = -0.0\nsamples = 1\nvalue = 0.659", fillcolor="#eb9f67"] ;
815 -> 827 ;
828 [label="squared_error = -0.0\nsamples = 1\nvalue = 0.861", fillcolor="#ea9b62"] ;
782 -> 828 ;
829 [label="X[0] <= 528.5\nsquared_error = 0.186\nsamples = 12\nvalue = 1.463", fillcolor="#e89050"] ;
765 -> 829 ;
830 [label="X[0] <= 520.5\nsquared_error = 0.093\nsamples = 10\nvalue = 1.603", fillcolor="#e88d4c"] ;
829 -> 830 ;
831 [label="X[0] <= 519.0\nsquared_error = 0.01\nsamples = 2\nvalue = 1.117", fillcolor="#e9965a"] ;
830 -> 831 ;
832 [label="squared_error = 0.0\nsamples = 1\nvalue = 1.016", fillcolor="#ea985d"] ;
831 -> 832 ;
833 [label="squared_error = 0.0\nsamples = 1\nvalue = 1.217", fillcolor="#e99457"] ;
831 -> 833 ;
834 [label="X[0] <= 526.5\nsquared_error = 0.04\nsamples = 8\nvalue = 1.724", fillcolor="#e78b49"] ;
830 -> 834 ;
835 [label="X[0] <= 521.5\nsquared_error = 0.022\nsamples = 6\nvalue = 1.812", fillcolor="#e78946"] ;
834 -> 835 ;
836 [label="squared_error = 0.0\nsamples = 1\nvalue = 1.553", fillcolor="#e88e4e"] ;
835 -> 836 ;
837 [label="X[0] <= 525.5\nsquared_error = 0.011\nsamples = 5\nvalue = 1.863", fillcolor="#e78845"] ;
835 -> 837 ;
838 [label="X[0] <= 522.5\nsquared_error = 0.007\nsamples = 4\nvalue = 1.899", fillcolor="#e68844"] ;
837 -> 838 ;
839 [label="squared_error = 0.0\nsamples = 1\nvalue = 1.772", fillcolor="#e78a47"] ;
838 -> 839 ;
840 [label="X[0] <= 523.5\nsquared_error = 0.002\nsamples = 3\nvalue = 1.941", fillcolor="#e68742"] ;
838 -> 840 ;
841 [label="squared_error = 0.0\nsamples = 1\nvalue = 2.001", fillcolor="#e68641"] ;
840 -> 841 ;
842 [label="X[0] <= 524.5\nsquared_error = 0.0\nsamples = 2\nvalue = 1.912", fillcolor="#e68743"] ;
840 -> 842 ;
843 [label="squared_error = 0.0\nsamples = 1\nvalue = 1.925", fillcolor="#e68743"] ;
842 -> 843 ;
844 [label="squared_error = 0.0\nsamples = 1\nvalue = 1.898", fillcolor="#e68844"] ;
842 -> 844 ;
845 [label="squared_error = -0.0\nsamples = 1\nvalue = 1.721", fillcolor="#e78b49"] ;
837 -> 845 ;
846 [label="X[0] <= 527.5\nsquared_error = 0.002\nsamples = 2\nvalue = 1.462", fillcolor="#e89050"] ;
834 -> 846 ;
847 [label="squared_error = 0.0\nsamples = 1\nvalue = 1.502", fillcolor="#e88f4f"] ;
846 -> 847 ;
848 [label="squared_error = 0.0\nsamples = 1\nvalue = 1.422", fillcolor="#e89051"] ;
846 -> 848 ;
849 [label="X[0] <= 530.0\nsquared_error = 0.067\nsamples = 2\nvalue = 0.764", fillcolor="#eb9d64"] ;
829 -> 849 ;
850 [label="squared_error = 0.0\nsamples = 1\nvalue = 1.023", fillcolor="#ea985d"] ;
849 -> 850 ;
851 [label="squared_error = 0.0\nsamples = 1\nvalue = 0.504", fillcolor="#eca16c"] ;
849 -> 851 ;
852 [label="X[0] <= 550.0\nsquared_error = 0.282\nsamples = 22\nvalue = 0.026", fillcolor="#edaa7a"] ;
764 -> 852 ;
853 [label="X[0] <= 532.5\nsquared_error = 0.019\nsamples = 13\nvalue = -0.352", fillcolor="#efb185"] ;
852 -> 853 ;
854 [label="squared_error = 0.0\nsamples = 1\nvalue = 0.056", fillcolor="#edaa79"] ;
853 -> 854 ;
855 [label="X[0] <= 535.0\nsquared_error = 0.005\nsamples = 12\nvalue = -0.386", fillcolor="#efb286"] ;
853 -> 855 ;
856 [label="squared_error = 0.0\nsamples = 1\nvalue = -0.233", fillcolor="#eeaf81"] ;
855 -> 856 ;
857 [label="X[0] <= 548.5\nsquared_error = 0.004\nsamples = 11\nvalue = -0.4", fillcolor="#efb286"] ;
855 -> 857 ;
858 [label="X[0] <= 539.5\nsquared_error = 0.002\nsamples = 10\nvalue = -0.415", fillcolor="#efb286"] ;
857 -> 858 ;
859 [label="X[0] <= 537.5\nsquared_error = 0.001\nsamples = 3\nvalue = -0.367", fillcolor="#efb185"] ;
858 -> 859 ;
860 [label="squared_error = 0.0\nsamples = 1\nvalue = -0.403", fillcolor="#efb286"] ;
859 -> 860 ;
861 [label="X[0] <= 538.5\nsquared_error = 0.0\nsamples = 2\nvalue = -0.35", fillcolor="#efb185"] ;
859 -> 861 ;
862 [label="squared_error = 0.0\nsamples = 1\nvalue = -0.346", fillcolor="#efb184"] ;
861 -> 862 ;
863 [label="squared_error = 0.0\nsamples = 1\nvalue = -0.354", fillcolor="#efb185"] ;
861 -> 863 ;
864 [label="X[0] <= 547.5\nsquared_error = 0.001\nsamples = 7\nvalue = -0.435", fillcolor="#efb387"] ;
858 -> 864 ;
865 [label="X[0] <= 546.0\nsquared_error = 0.001\nsamples = 6\nvalue = -0.43", fillcolor="#efb387"] ;
864 -> 865 ;
866 [label="X[0] <= 542.5\nsquared_error = 0.0\nsamples = 5\nvalue = -0.441", fillcolor="#efb387"] ;
865 -> 866 ;
867 [label="X[0] <= 540.5\nsquared_error = 0.0\nsamples = 3\nvalue = -0.435", fillcolor="#efb387"] ;
866 -> 867 ;
868 [label="squared_error = 0.0\nsamples = 1\nvalue = -0.44", fillcolor="#efb387"] ;
867 -> 868 ;
869 [label="X[0] <= 541.5\nsquared_error = 0.0\nsamples = 2\nvalue = -0.433", fillcolor="#efb387"] ;
867 -> 869 ;
870 [label="squared_error = 0.0\nsamples = 1\nvalue = -0.425", fillcolor="#efb287"] ;
869 -> 870 ;
871 [label="squared_error = 0.0\nsamples = 1\nvalue = -0.44", fillcolor="#efb387"] ;
869 -> 871 ;
872 [label="X[0] <= 544.0\nsquared_error = 0.0\nsamples = 2\nvalue = -0.45", fillcolor="#efb387"] ;
866 -> 872 ;
873 [label="squared_error = 0.0\nsamples = 1\nvalue = -0.452", fillcolor="#efb388"] ;
872 -> 873 ;
874 [label="squared_error = 0.0\nsamples = 1\nvalue = -0.449", fillcolor="#efb387"] ;
872 -> 874 ;
875 [label="squared_error = 0.0\nsamples = 1\nvalue = -0.376", fillcolor="#efb285"] ;
865 -> 875 ;
876 [label="squared_error = -0.0\nsamples = 1\nvalue = -0.461", fillcolor="#efb388"] ;
864 -> 876 ;
877 [label="squared_error = 0.0\nsamples = 1\nvalue = -0.254", fillcolor="#efaf82"] ;
857 -> 877 ;
878 [label="X[0] <= 558.5\nsquared_error = 0.158\nsamples = 9\nvalue = 0.571", fillcolor="#eba06a"] ;
852 -> 878 ;
879 [label="X[0] <= 554.5\nsquared_error = 0.054\nsamples = 7\nvalue = 0.675", fillcolor="#eb9e67"] ;
878 -> 879 ;
880 [label="X[0] <= 553.5\nsquared_error = 0.008\nsamples = 4\nvalue = 0.485", fillcolor="#eca26c"] ;
879 -> 880 ;
881 [label="X[0] <= 552.5\nsquared_error = 0.005\nsamples = 3\nvalue = 0.447", fillcolor="#eca26e"] ;
880 -> 881 ;
882 [label="X[0] <= 551.5\nsquared_error = 0.005\nsamples = 2\nvalue = 0.421", fillcolor="#eca36e"] ;
881 -> 882 ;
883 [label="squared_error = 0.0\nsamples = 1\nvalue = 0.491", fillcolor="#eca26c"] ;
882 -> 883 ;
884 [label="squared_error = -0.0\nsamples = 1\nvalue = 0.351", fillcolor="#eca470"] ;
882 -> 884 ;
885 [label="squared_error = 0.0\nsamples = 1\nvalue = 0.499", fillcolor="#eca16c"] ;
881 -> 885 ;
886 [label="squared_error = 0.0\nsamples = 1\nvalue = 0.6", fillcolor="#eba069"] ;
880 -> 886 ;
887 [label="X[0] <= 555.5\nsquared_error = 0.004\nsamples = 3\nvalue = 0.928", fillcolor="#ea9a60"] ;
879 -> 887 ;
888 [label="squared_error = 0.0\nsamples = 1\nvalue = 0.842", fillcolor="#ea9b62"] ;
887 -> 888 ;
889 [label="X[0] <= 556.5\nsquared_error = 0.0\nsamples = 2\nvalue = 0.971", fillcolor="#ea995e"] ;
887 -> 889 ;
890 [label="squared_error = 0.0\nsamples = 1\nvalue = 0.952", fillcolor="#ea995f"] ;
889 -> 890 ;
891 [label="squared_error = 0.0\nsamples = 1\nvalue = 0.99", fillcolor="#ea985e"] ;
889 -> 891 ;
892 [label="X[0] <= 560.5\nsquared_error = 0.35\nsamples = 2\nvalue = 0.208", fillcolor="#eda774"] ;
878 -> 892 ;
893 [label="squared_error = 0.0\nsamples = 1\nvalue = -0.384", fillcolor="#efb286"] ;
892 -> 893 ;
894 [label="squared_error = -0.0\nsamples = 1\nvalue = 0.8", fillcolor="#eb9c63"] ;
892 -> 894 ;
895 [label="X[0] <= 568.0\nsquared_error = 0.939\nsamples = 52\nvalue = -0.806", fillcolor="#f1b992"] ;
13 -> 895 ;
896 [label="X[0] <= 563.5\nsquared_error = 1.416\nsamples = 6\nvalue = -2.985", fillcolor="#f9e2d1"] ;
895 -> 896 ;
897 [label="X[0] <= 562.5\nsquared_error = 0.57\nsamples = 2\nvalue = -1.63", fillcolor="#f4c9aa"] ;
896 -> 897 ;
898 [label="squared_error = 0.0\nsamples = 1\nvalue = -0.874", fillcolor="#f1bb94"] ;
897 -> 898 ;
899 [label="squared_error = 0.0\nsamples = 1\nvalue = -2.385", fillcolor="#f7d7bf"] ;
897 -> 899 ;
900 [label="X[0] <= 566.5\nsquared_error = 0.461\nsamples = 4\nvalue = -3.662", fillcolor="#fbeee4"] ;
896 -> 900 ;
901 [label="X[0] <= 565.5\nsquared_error = 0.05\nsamples = 3\nvalue = -4.038", fillcolor="#fdf5ef"] ;
900 -> 901 ;
902 [label="X[0] <= 564.5\nsquared_error = 0.033\nsamples = 2\nvalue = -4.156", fillcolor="#fdf7f3"] ;
901 -> 902 ;
903 [label="squared_error = 0.0\nsamples = 1\nvalue = -3.973", fillcolor="#fdf4ed"] ;
902 -> 903 ;
904 [label="squared_error = -0.0\nsamples = 1\nvalue = -4.338", fillcolor="#fefaf8"] ;
902 -> 904 ;
905 [label="squared_error = -0.0\nsamples = 1\nvalue = -3.802", fillcolor="#fcf1e8"] ;
901 -> 905 ;
906 [label="squared_error = 0.0\nsamples = 1\nvalue = -2.535", fillcolor="#f7d9c4"] ;
900 -> 906 ;
907 [label="X[0] <= 605.5\nsquared_error = 0.177\nsamples = 46\nvalue = -0.522", fillcolor="#f0b48a"] ;
895 -> 907 ;
908 [label="X[0] <= 585.5\nsquared_error = 0.096\nsamples = 33\nvalue = -0.723", fillcolor="#f0b88f"] ;
907 -> 908 ;
909 [label="X[0] <= 570.0\nsquared_error = 0.089\nsamples = 16\nvalue = -0.535", fillcolor="#f0b48a"] ;
908 -> 909 ;
910 [label="squared_error = 0.0\nsamples = 1\nvalue = -1.594", fillcolor="#f4c8a9"] ;
909 -> 910 ;
911 [label="X[0] <= 578.5\nsquared_error = 0.016\nsamples = 15\nvalue = -0.465", fillcolor="#efb388"] ;
909 -> 911 ;
912 [label="X[0] <= 573.5\nsquared_error = 0.004\nsamples = 8\nvalue = -0.362", fillcolor="#efb185"] ;
911 -> 912 ;
913 [label="X[0] <= 571.5\nsquared_error = 0.006\nsamples = 3\nvalue = -0.406", fillcolor="#efb286"] ;
912 -> 913 ;
914 [label="squared_error = 0.0\nsamples = 1\nvalue = -0.298", fillcolor="#efb083"] ;
913 -> 914 ;
915 [label="X[0] <= 572.5\nsquared_error = 0.001\nsamples = 2\nvalue = -0.46", fillcolor="#efb388"] ;
913 -> 915 ;
916 [label="squared_error = 0.0\nsamples = 1\nvalue = -0.429", fillcolor="#efb387"] ;
915 -> 916 ;
917 [label="squared_error = 0.0\nsamples = 1\nvalue = -0.491", fillcolor="#efb489"] ;
915 -> 917 ;
918 [label="X[0] <= 577.5\nsquared_error = 0.001\nsamples = 5\nvalue = -0.336", fillcolor="#efb184"] ;
912 -> 918 ;
919 [label="X[0] <= 576.5\nsquared_error = 0.001\nsamples = 4\nvalue = -0.329", fillcolor="#efb184"] ;
918 -> 919 ;
